dense_10/kernel:0
(784, 128)
[[ 1.73838362e-02  5.39208278e-02 -4.78995554e-02 -7.29922354e-02
  -7.24346936e-02 -8.07335153e-02 -2.48603895e-02 -1.40066370e-02
   1.72414109e-02  2.17912868e-02 -3.72865237e-02 -5.74864820e-02
  -1.75465122e-02 -3.31138596e-02 -2.76182629e-02 -3.68523784e-02
  -1.68409720e-02 -4.46419641e-02 -6.84108213e-02  2.46655196e-02
   2.35260502e-02  5.15177771e-02  3.04259136e-02  3.74324694e-02
  -3.43893170e-02  6.05384186e-02 -3.94658744e-02  6.19730577e-02
   3.07648554e-02 -7.67601728e-02 -6.81513026e-02  7.61821643e-02
  -3.62286419e-02  3.89389843e-02  3.06204408e-02 -2.37281136e-02
  -3.24175656e-02 -6.77067935e-02 -7.13754445e-02 -7.81855211e-02
  -1.07422695e-02 -4.79648225e-02  7.60556236e-02  6.57415390e-03
  -6.18223026e-02  5.50090149e-02  1.52111202e-02 -5.47131374e-02
  -2.16281861e-02 -5.58052287e-02  3.57078016e-02 -2.30308324e-02
   5.65033481e-02 -5.10556251e-02  1.91039219e-02 -3.66029143e-02
   5.84419593e-02  3.39484662e-02 -3.30652446e-02 -7.33836815e-02
   2.59555131e-03  7.96536431e-02  7.76946917e-02  6.51063249e-02
  -2.88224407e-02 -5.97529113e-02 -4.89305705e-03 -6.76656216e-02
   6.44385293e-02  6.89410791e-02 -6.45278394e-03  7.82498196e-02
  -6.88701421e-02  6.80326447e-02  6.16967157e-02 -6.40555620e-02
   3.87314633e-02  2.27933004e-02  3.88674662e-02 -3.12561467e-02
   8.29007477e-03  4.04291749e-02 -8.89433920e-03 -4.54997271e-03
   4.95233312e-02  5.44313714e-02 -3.49681079e-03 -1.31263956e-02
  -7.99401775e-02 -1.81741118e-02 -6.89982623e-03 -4.79119904e-02
  -8.03459138e-02 -2.65943781e-02 -6.72277063e-02 -6.32563531e-02
  -3.52646261e-02  6.46342263e-02 -3.53571400e-02  1.70766637e-02
  -2.00960897e-02 -3.91764753e-02  6.39879033e-02  2.43900642e-02
   6.22626320e-02 -4.53170240e-02 -2.03691460e-02  7.91429207e-02
  -6.65912777e-03 -1.73874721e-02  2.01834440e-02  7.61435106e-02
   4.78631184e-02  5.52047566e-02 -7.86457956e-03  4.02273387e-02
   7.50138238e-02 -6.52307570e-02  6.64294586e-02  2.30721384e-02
   6.68423846e-02  7.06725344e-02 -4.67289910e-02 -7.90352225e-02
   3.23742628e-03 -5.54188490e-02  3.11796069e-02  7.54354149e-03]
 [-5.11635728e-02 -5.33098355e-02 -1.68979019e-02  3.86093035e-02
  -4.36422974e-03 -6.42387196e-02 -4.12334129e-02 -7.76873082e-02
  -5.24974614e-03  1.81939751e-02 -4.33124155e-02  1.17291436e-02
   3.68394032e-02  6.27835318e-02  4.24755290e-02 -2.08673216e-02
   6.72954693e-02 -8.03896785e-03  6.21152893e-02  7.17837363e-03
   2.73129344e-02 -1.00892037e-03 -6.84174150e-02  3.27793509e-03
   1.53733790e-03  4.15929928e-02  3.31891850e-02 -4.09401283e-02
   5.95115945e-02  1.47837847e-02 -3.32461931e-02  7.81879798e-02
  -5.13830036e-02 -1.01361275e-02 -4.47727852e-02  4.15636152e-02
   2.52915397e-02  2.80584842e-02  9.86570120e-03 -6.42721355e-02
   3.15510184e-02  3.83752733e-02  7.64030889e-02  4.31669354e-02
   1.00315362e-03  5.52265123e-02  3.65001112e-02  7.72756711e-02
   7.96682611e-02  8.10681656e-02 -7.43368864e-02 -7.46262893e-02
  -3.32617983e-02  1.32866278e-02 -3.27510349e-02  9.61223990e-03
  -4.59497347e-02 -5.44235110e-04  4.89014164e-02 -3.20003815e-02
   4.68714163e-02 -7.79356807e-03 -4.58212309e-02  1.36036798e-02
  -4.84162755e-02 -3.17827277e-02  4.43632379e-02  7.73087218e-02
  -2.21126676e-02  7.91151077e-03 -3.89368534e-02  3.76634300e-03
  -1.61535516e-02 -4.58807163e-02 -4.93390039e-02  5.51238433e-02
   1.99194178e-02 -4.07598764e-02 -3.47431116e-02  1.81514099e-02
  -6.41715154e-02 -4.10974845e-02  6.57033399e-02 -5.56613505e-02
   7.99211636e-02  6.01216480e-02 -2.34966725e-02 -2.80924141e-04
   1.66209787e-02  2.41022110e-02  1.64998621e-02  4.99384776e-02
  -8.31153989e-03  7.03404322e-02  4.24852967e-03 -4.87458706e-03
  -4.33498919e-02 -1.31204575e-02  2.10544616e-02 -5.99505082e-02
  -2.33384222e-03 -4.72560935e-02  2.00356767e-02  6.32959381e-02
  -7.56470561e-02  2.55439430e-02  5.16732782e-03  2.56296843e-02
   1.29479021e-02  4.81902882e-02 -2.70031691e-02 -5.28902896e-02
   1.15133673e-02  5.52799776e-02  2.01143846e-02  5.02050444e-02
   4.08664495e-02  8.03694949e-02  7.19400421e-02 -3.76271680e-02
   4.63938341e-02 -9.83688980e-03  1.51012763e-02 -2.93478034e-02
  -4.53202911e-02 -3.47774364e-02 -3.22396159e-02  2.47846246e-02]
 [-2.73508728e-02 -6.90151006e-03  6.65037110e-02  3.20744440e-02
   6.47001714e-03  4.91040871e-02  6.85081556e-02 -1.43415928e-02
  -4.70703840e-03  7.86151960e-02 -1.92923732e-02  6.58891276e-02
   4.54631373e-02  4.49961945e-02 -3.43119465e-02  4.34284434e-02
   5.67325950e-03 -3.20306644e-02  4.39194068e-02 -6.48590326e-02
   4.51892689e-02  7.03754351e-02 -5.89762628e-02 -3.58168334e-02
   8.07422027e-02  7.33481273e-02 -6.07499145e-02  2.60694399e-02
   5.95288724e-03  5.39666787e-02 -6.03583902e-02  6.52621761e-02
   1.17292181e-02  5.64459711e-03 -4.66277562e-02 -2.82934979e-02
   2.90140435e-02 -5.01638390e-02 -5.61754033e-02  4.25695181e-02
  -7.18257129e-02  4.79194894e-02  1.08281896e-02 -3.05324309e-02
   7.23586157e-02 -5.67956269e-03  2.67080069e-02  3.89560312e-03
  -2.76836455e-02 -5.86700439e-03  5.03368154e-02  3.43442187e-02
   6.13035932e-02 -2.87583470e-03 -2.44096927e-02  6.84554800e-02
  -7.78403729e-02  2.22531408e-02 -2.23851278e-02  4.72056642e-02
  -8.36348534e-03  8.33287835e-04  5.41545227e-02  4.12574857e-02
   6.90088347e-02  2.85167769e-02  6.64171800e-02 -1.39882267e-02
  -5.99834397e-02 -1.95989609e-02 -6.91479966e-02 -2.36010551e-03
  -4.63853106e-02 -7.30123520e-02  2.80427039e-02  1.03054792e-02
   3.26928496e-02 -4.39238735e-02  1.90822780e-02 -1.00790635e-02
   2.61207670e-02 -2.96267979e-02  2.28847116e-02  2.75453776e-02
   5.07170483e-02  5.11646792e-02 -3.05447467e-02 -1.82474479e-02
   3.05733457e-02  4.06000614e-02 -7.38513842e-02  4.90970835e-02
  -4.27819677e-02 -1.44380927e-02 -3.95287015e-02  3.03034857e-02
  -1.59885809e-02  7.24031553e-02 -6.78840429e-02  6.62696138e-02
  -7.70089775e-03 -2.15332210e-03 -2.18777098e-02  7.11550489e-02
  -7.28123933e-02 -4.47914079e-02  5.05654737e-02 -4.80127819e-02
  -6.60153478e-03 -5.02286628e-02  5.11950031e-02  1.01893321e-02
  -5.59463389e-02 -2.93981433e-02  1.07099935e-02  2.30594352e-02
   5.61771765e-02  7.39082769e-02  6.68180361e-02  7.89988115e-02
   3.24418172e-02  7.13337958e-03  2.26708278e-02  7.07296953e-02
  -2.46579759e-02 -4.84363511e-02  1.78003088e-02 -8.07190463e-02]
 [ 1.16076320e-03 -7.21216872e-02 -4.63981517e-02 -4.63583544e-02
   3.98945063e-02  2.75044218e-02 -1.22223794e-03 -5.72761185e-02
  -5.63139021e-02 -5.89539111e-02 -5.44061400e-02  4.27100062e-03
  -4.53195944e-02  2.90430114e-02 -5.22895828e-02 -4.95169722e-02
   2.09394693e-02  6.39490113e-02 -2.48005204e-02 -6.84558004e-02
   9.65163112e-03 -5.65709844e-02  1.56739205e-02  3.83717865e-02
  -6.38801679e-02  3.36506516e-02  4.42912057e-02  7.38512501e-02
   1.18144602e-02 -4.93606031e-02 -7.80974925e-02  2.43331864e-02
   6.95461407e-02 -5.81552982e-02  2.38447040e-02 -1.55099183e-02
   2.45391577e-03  2.86475047e-02  1.94582939e-02 -4.83507663e-03
   3.96026149e-02  4.41861376e-02  7.51546025e-03  7.81522766e-02
  -1.30347088e-02 -1.99194923e-02 -5.76304644e-03 -4.05389182e-02
   8.06637630e-02  8.06613490e-02  1.34475455e-02 -6.94097206e-02
  -7.81512707e-02 -5.80125377e-02 -3.31772305e-02 -6.59109429e-02
  -1.25610381e-02 -1.31881610e-02 -2.65975296e-02  4.27948087e-02
   1.89113319e-02 -6.07876033e-02 -7.92105049e-02 -3.92443128e-02
   5.01029268e-02 -8.09514970e-02 -9.09171999e-04  2.52468660e-02
  -5.77824153e-02 -5.61293960e-02 -5.45639023e-02 -3.10242176e-04
  -6.98770732e-02 -7.49730766e-02  2.84761488e-02 -4.27009203e-02
  -4.97220941e-02 -6.17504418e-02 -5.35814390e-02 -4.46088165e-02
   2.10587531e-02 -3.63890529e-02  8.01113471e-02  1.10369176e-03
  -5.92001453e-02 -1.08186975e-02 -5.05304337e-03  5.46311811e-02
   6.32014498e-02  5.93252555e-02  5.13135642e-03 -7.83295333e-02
   2.14939192e-02  4.88867834e-02  5.92371076e-03 -5.45848086e-02
  -6.37354404e-02 -5.79173937e-02  7.12512955e-02  4.96224239e-02
   7.51609728e-02  2.65710056e-04  2.54135057e-02  5.03269657e-02
   2.87163109e-02  5.90356365e-02  4.38998416e-02 -4.47606221e-02
  -4.61341441e-02 -2.45155096e-02 -1.05790347e-02 -3.04136351e-02
  -6.19210228e-02  4.93742898e-02 -3.43857966e-02  4.22409549e-02
  -8.73296708e-03  6.66724816e-02  2.37640738e-03  8.20825994e-03
  -4.42005470e-02 -2.35073268e-02 -3.42366621e-02 -4.29475792e-02
   1.14920959e-02  8.00284967e-02 -4.50615250e-02 -5.86137921e-03]
 [ 7.62252584e-02 -5.35508096e-02  2.50142664e-02  3.02135050e-02
   6.15425780e-02  7.91284367e-02 -1.80216357e-02 -1.51167512e-02
   3.29454243e-02  4.05008942e-02 -3.49755771e-02 -5.59462421e-02
  -2.25180574e-02  2.87383199e-02  6.93900511e-02  2.39547789e-02
   7.51914904e-02  4.62832227e-02 -4.34834622e-02  2.02430785e-02
  -2.74579488e-02 -5.95877990e-02 -7.54096061e-02 -2.40640566e-02
  -4.57467400e-02 -1.58096626e-02  5.81845120e-02  7.54084215e-02
   4.79480699e-02  1.67937875e-02 -1.46892741e-02  7.51011893e-02
   2.92069018e-02 -2.59520188e-02 -7.35119134e-02 -6.63582385e-02
   3.49795595e-02 -6.83676749e-02  8.04054961e-02  3.86660770e-02
   3.20982933e-03  2.77554914e-02 -3.68390568e-02  1.20141357e-03
   7.39888176e-02  1.35990232e-02  1.99948326e-02 -8.08105990e-02
  -2.38708407e-03 -2.36905590e-02  5.98779842e-02  1.59840360e-02
  -5.49381971e-03 -7.00903907e-02  4.45780233e-02  5.42701557e-02
  -1.45557672e-02  8.27215612e-04  5.44159040e-02 -5.16832881e-02
  -5.76826483e-02 -9.31220502e-03  2.62180716e-03 -6.22601584e-02
  -7.83087984e-02  3.38194743e-02  7.16435686e-02  6.56689033e-02
  -1.66480169e-02  4.13821265e-02  3.27857658e-02 -7.35790208e-02
  -7.28733093e-02  2.27605030e-02 -3.31793390e-02 -4.99544255e-02
   3.36095765e-02 -5.64483628e-02 -4.96476032e-02 -5.36732748e-02
  -7.45609403e-02 -6.40943199e-02  3.20119262e-02 -4.36974615e-02
   2.31773034e-02  4.38675582e-02  8.47376883e-03  7.97348991e-02
  -1.06795579e-02  6.48140162e-03 -7.77272955e-02  3.83047462e-02
  -6.96323812e-03  4.32113931e-02  1.14712641e-02 -6.86428994e-02
   2.45342478e-02  4.48148921e-02  5.10338172e-02 -6.29081056e-02
   6.74879923e-02  1.16872787e-02  5.42124137e-02 -6.05824068e-02
  -6.68134168e-02  2.53173932e-02  2.48375684e-02  7.91928545e-02
   2.32786685e-03  5.22712544e-02 -2.50259452e-02  6.14366308e-02
  -7.28195086e-02 -7.14701414e-02 -2.68313289e-02 -6.36598840e-02
  -7.79381022e-02 -3.66222337e-02  3.17713395e-02 -1.27519816e-02
  -7.25344568e-03  4.10645530e-02  1.70719847e-02 -5.70820011e-02
   1.08305663e-02  6.45795986e-02 -1.64918974e-02 -5.70481792e-02]
 [-4.19531278e-02  1.67559236e-02 -7.19298869e-02  4.87411544e-02
  -7.33343512e-02  6.24578223e-02  2.82725394e-02 -5.47280833e-02
   7.08509609e-02  3.33101079e-02  5.79513088e-02  6.12142310e-02
  -7.14876801e-02 -9.16159898e-03 -6.27230406e-02  2.87445635e-02
  -2.62606777e-02 -6.59461170e-02  6.46768287e-02 -4.45482694e-02
   6.67303428e-02  2.57167295e-02 -8.02521110e-02 -7.94622749e-02
  -6.98760673e-02 -7.48152807e-02  4.01688367e-02 -7.38075376e-02
   4.16501313e-02  2.64901221e-02  2.55498812e-02  6.54074326e-02
  -4.41046655e-02  5.83630875e-02 -4.79550399e-02  2.20482051e-03
   1.15400702e-02 -5.16602956e-02 -4.57318127e-03 -5.69419712e-02
   5.36210611e-02  2.27125809e-02  6.82740286e-02  3.68368104e-02
  -5.58416247e-02  1.72728747e-02 -5.85320629e-02 -1.03317797e-02
  -3.82376984e-02 -1.69393644e-02 -1.71085522e-02 -6.23644292e-02
  -5.88351712e-02 -2.05392279e-02 -1.55153126e-03 -6.93873465e-02
  -7.53474906e-02 -6.41344860e-02 -3.50458138e-02  5.62089607e-02
   3.33552435e-02 -6.73451424e-02 -8.28259438e-03 -3.09045576e-02
  -4.18972224e-03 -1.44441798e-02  2.82458887e-02 -3.68459187e-02
  -2.17400007e-02  6.65386394e-02 -7.48013780e-02 -3.09457630e-03
   4.26761061e-02 -4.26531732e-02 -2.20894627e-02 -5.13648465e-02
   1.96883008e-02 -4.81719933e-02  1.52022392e-03  2.15025246e-02
   3.54926810e-02  7.27530792e-02 -1.32926479e-02 -2.11725384e-03
   7.59155974e-02 -1.58616826e-02 -1.03799328e-02 -7.47480020e-02
   2.59846449e-02  1.58973038e-02  3.51927057e-02 -8.04065987e-02
  -7.23911449e-02 -6.72778860e-02 -4.26268578e-03  6.42784610e-02
  -6.35644495e-02 -1.44868642e-02 -5.42203560e-02 -3.63374576e-02
  -4.48389053e-02  7.66663179e-02  3.72481570e-02 -2.70438194e-03
   2.70273611e-02  5.14747873e-02  2.45314464e-02  4.56263646e-02
  -1.43086016e-02  8.07594433e-02  4.29396704e-02 -8.05143937e-02
  -1.42069235e-02  7.46327415e-02  3.74863073e-02  2.23778188e-02
   6.55896962e-04  7.93261155e-02 -5.29865175e-02  6.95266351e-02
  -5.01977652e-03  2.76161581e-02  6.42187372e-02  5.65395504e-03
   5.21265939e-02 -1.65126622e-02  7.75574520e-02 -5.90736717e-02]
 [-2.64804810e-03 -6.13746382e-02  1.85706243e-02 -3.51705402e-03
   2.86416113e-02 -6.80066645e-04 -4.18002196e-02  1.32596940e-02
   7.44866654e-02 -5.31973802e-02  7.77608678e-02  1.80799365e-02
  -3.96914743e-02 -1.71093270e-02 -4.87176441e-02 -8.10702741e-02
   7.97234401e-02  1.74276382e-02 -4.45861518e-02 -3.57530564e-02
  -2.80530751e-03 -4.67722677e-02 -2.88914405e-02  4.92013171e-02
  -4.98403497e-02 -6.53698370e-02  2.75031999e-02 -6.79525435e-02
  -2.69433372e-02  6.72353804e-03 -6.53235987e-02 -3.43761593e-03
  -3.72597389e-02  4.55909148e-02 -6.64482340e-02  1.27238855e-02
  -1.82958692e-02 -5.86993396e-02  1.71853453e-02  7.09057376e-02
  -4.99019213e-02  1.35691464e-02 -3.09709050e-02  5.02904430e-02
  -2.54719816e-02 -2.27939971e-02 -6.78235739e-02  1.77368522e-04
  -3.54220010e-02 -7.67145902e-02 -2.09021308e-02  5.53191379e-02
  -2.81306319e-02  5.71438894e-02 -4.64108959e-02 -4.37917747e-02
  -4.37700562e-02  1.39310583e-02  4.57545593e-02  5.10946885e-02
   6.75289407e-02 -1.95061751e-02 -2.85344943e-02  9.19114798e-03
  -6.25620857e-02  4.03633639e-02 -2.16137022e-02  3.57965380e-03
   7.28812069e-03  3.99054736e-02  7.70402625e-02 -3.39913368e-03
  -9.75922495e-03  2.39405259e-02 -7.25142136e-02  6.24402240e-02
   1.41440108e-02 -5.56372851e-03  3.17076594e-02  2.60473564e-02
  -7.56091923e-02  5.73071316e-02 -5.03820330e-02 -4.51804549e-02
  -3.03672217e-02 -6.25280291e-02  1.90475881e-02 -1.46007240e-02
  -2.58757100e-02 -3.74269485e-03 -7.54838660e-02  1.62731186e-02
  -3.31209004e-02 -5.23461103e-02 -7.50461221e-02  2.57703960e-02
  -5.26250638e-02 -1.19823217e-02  4.46868315e-02 -8.46835971e-03
  -7.61923790e-02  5.34258559e-02  4.37018275e-03  4.76293787e-02
   2.13799179e-02 -4.29889038e-02  6.67686015e-03 -3.56211103e-02
   7.95958936e-03 -1.95858479e-02  6.40759990e-02  2.27840543e-02
  -6.21461123e-03 -2.77975500e-02 -1.00203753e-02 -3.72264534e-03
  -8.09789747e-02 -1.11563206e-02  6.22696504e-02  5.70197925e-02
  -7.46383891e-02  7.87544921e-02  7.42327943e-02  1.64160728e-02
   3.99739519e-02  4.29112390e-02  7.16609284e-02  2.87460163e-02]
 [-5.59455082e-02  3.68452445e-02  5.96828684e-02 -4.64677885e-02
   3.04138064e-02  7.63022229e-02  2.30484307e-02 -4.74108979e-02
  -2.82732323e-02  4.56471071e-02  4.41580936e-02  7.07114264e-02
  -4.33593094e-02  5.02073541e-02 -3.42350379e-02 -4.01695073e-03
   7.52561018e-02 -2.25980021e-02  2.79501826e-02  7.92378709e-02
   7.50288591e-02  6.92097023e-02 -4.44193967e-02 -1.16863102e-02
  -3.80003452e-03  6.20541051e-02  4.00472805e-02  3.41584384e-02
  -3.61188576e-02  4.62476388e-02  1.08649358e-02  7.53744021e-02
   8.10585991e-02  1.68648511e-02  5.02924994e-02  2.46483460e-02
  -6.12637401e-03  1.49731785e-02 -5.75234368e-02  3.64007354e-02
  -1.17293149e-02  5.39074615e-02 -9.47702676e-03 -7.31570572e-02
   1.42853186e-02 -6.32477254e-02 -2.93479972e-02 -5.55171072e-02
  -2.51053497e-02  4.32154536e-02 -7.36821517e-02  4.36629057e-02
  -5.32650650e-02 -9.63166356e-04  7.97714666e-02  6.26176596e-04
   1.61302835e-03 -3.00334804e-02 -2.00666003e-02  5.55981770e-02
  -1.16841421e-02  9.90832597e-03  2.59797871e-02  4.10214439e-02
   2.08467245e-02 -4.02365997e-02  4.41302732e-02  5.51429167e-02
   4.36397716e-02 -2.70200521e-03  5.39655909e-02  6.26996234e-02
  -3.68747339e-02  3.11513096e-02  8.14411044e-03  6.59658536e-02
   3.22970748e-03  1.46131441e-02 -1.93288997e-02  3.58338282e-02
   1.38980672e-02 -4.22623008e-03 -1.34711564e-02 -7.66606182e-02
   5.34389690e-02 -5.49610332e-02  5.73084876e-02  2.89679840e-02
   7.93251470e-02 -2.21178718e-02 -4.64768372e-02  1.33404136e-02
  -2.68164389e-02 -5.50912991e-02  3.96387577e-02 -3.03184688e-02
   5.82705662e-02  7.11543635e-02  2.24120617e-02  2.12300718e-02
   2.71708518e-02  4.56027910e-02 -6.36598244e-02  3.40806618e-02
   7.04533383e-02 -7.36382380e-02  5.93728945e-02  5.70868328e-02
   5.43236509e-02  4.27364632e-02 -2.92570107e-02  6.28086254e-02
   1.35542303e-02 -3.07869986e-02  9.38039273e-03  1.43125653e-04
  -4.34539728e-02 -4.59000170e-02 -6.83274940e-02 -8.12724978e-03
   1.32801682e-02  8.05169418e-02  8.10842291e-02  7.25182146e-03
  -6.71025887e-02  1.20639503e-02  2.41564214e-02  5.16952649e-02]
 [-3.04943919e-02 -6.91734850e-02  2.66807973e-02  3.39807197e-02
  -3.76264527e-02  7.41577074e-02  1.89546496e-02  4.66832891e-02
  -3.07048894e-02 -6.26526698e-02 -8.26828182e-03  7.61967376e-02
   3.41310352e-02  7.62147978e-02 -2.22005025e-02 -3.65673713e-02
  -6.64573610e-02  3.05187181e-02 -6.37036264e-02 -1.86700635e-02
  -6.30974025e-03 -1.59580633e-02 -5.44623584e-02  3.03160325e-02
   3.10564041e-02 -6.98914006e-02 -7.64325261e-03 -4.95836139e-04
   1.45476833e-02  6.25320747e-02 -3.06653790e-02 -4.56205569e-02
   8.05778801e-03  5.45127913e-02  6.61230832e-03 -5.49321622e-03
   6.27654269e-02  3.48086506e-02 -3.91200446e-02 -6.37586638e-02
   6.94046542e-02 -3.41644138e-03 -1.44443139e-02  7.64522627e-02
  -3.14359367e-03 -7.91556090e-02  1.74842998e-02  4.79660258e-02
   2.25294679e-02  2.21083313e-03  7.36197457e-02  5.88086620e-02
   2.85293311e-02 -4.31372300e-02 -2.64565721e-02  4.52944711e-02
   4.43376526e-02 -5.52326217e-02  4.26640958e-02  7.27765188e-02
   6.53257594e-02  4.37761843e-02 -4.69563492e-02 -4.54508066e-02
   3.03928554e-03 -5.43811768e-02 -5.79012111e-02 -4.11249623e-02
   1.61895603e-02 -2.67408863e-02  1.93892792e-02  1.35006830e-02
   6.45397380e-02  3.70700508e-02  3.85970399e-02  6.09399304e-02
  -8.03771615e-03 -5.09273335e-02 -6.55293390e-02  7.48199448e-02
  -2.26597488e-02  2.42376029e-02  7.84161910e-02  3.11178565e-02
  -8.10910240e-02 -7.55025819e-02 -6.23387843e-03 -1.01446807e-02
  -7.53523782e-02 -1.64759979e-02  2.63987333e-02 -5.36723286e-02
  -9.32970643e-03 -3.30446474e-02 -1.08039007e-02  1.16214305e-02
  -5.64760566e-02  4.13704216e-02 -4.03689519e-02 -4.89199236e-02
  -5.61219528e-02 -5.16123921e-02 -4.32191268e-02 -8.13134015e-04
  -4.58959751e-02  8.07540938e-02 -6.45779148e-02 -5.59186079e-02
   2.75857523e-02  6.01947829e-02  1.91865489e-02 -8.11837614e-04
   3.36093307e-02 -5.65078259e-02 -2.12030150e-02  4.90689650e-02
   7.42728338e-02 -6.82662129e-02  6.22931048e-02 -5.42210154e-02
  -7.34161735e-02 -2.16007829e-02  4.63985652e-03 -7.84698129e-03
  -6.79390058e-02  6.40487596e-02  1.58093870e-02 -4.92210202e-02]
 [-7.69744366e-02  2.38089114e-02 -6.36842325e-02  4.79123741e-03
  -6.49385750e-02 -5.45257106e-02 -6.37611002e-02 -7.02502578e-02
  -6.32735789e-02  3.71434614e-02 -5.58354706e-02  1.90077722e-03
  -5.57958856e-02 -3.96275595e-02 -6.96172044e-02  2.73699984e-02
   7.88586587e-03 -8.42695683e-03 -4.11535278e-02 -4.86524552e-02
   6.76179156e-02 -5.22881523e-02 -7.09382817e-02 -1.46122724e-02
   1.24084204e-03 -1.65437609e-02  3.45110893e-02  3.87859568e-02
   1.55656710e-02  6.59097955e-02 -1.63689032e-02  8.06985274e-02
  -6.02944009e-02 -6.55748397e-02  8.27979296e-03  5.11660501e-02
   4.26562056e-02  2.51676142e-03  2.45755166e-02  6.00674525e-02
  -6.61449358e-02 -4.20010462e-02  5.88855669e-02 -6.93682209e-02
  -8.83655995e-03 -3.71768959e-02  7.83584267e-03 -1.58986896e-02
  -2.09517144e-02  2.08847225e-02  2.95460597e-02  5.96362427e-02
  -7.50943273e-03  6.63221255e-02 -4.36997414e-03  6.01181462e-02
   6.61469772e-02  4.71621826e-02 -6.36775792e-02  2.36814097e-02
   7.42688775e-04 -3.52609158e-02  1.39141977e-02 -2.09467225e-02
  -6.56654760e-02 -3.95601988e-03  5.44005632e-03  1.70750991e-02
   7.67380744e-03 -5.24514616e-02 -1.24829337e-02  1.21545047e-02
   1.44940615e-03  3.55697051e-02  1.21958554e-02  2.49490589e-02
   2.32554674e-02 -3.17737535e-02 -5.26609272e-03 -7.09280372e-03
   4.17099893e-02 -5.07321209e-03  6.73222169e-02 -2.51404680e-02
   4.42632288e-03 -6.22333586e-02 -1.36747658e-02 -1.69462264e-02
  -6.06286451e-02  2.68510580e-02 -6.83608130e-02  1.91248208e-03
   7.18219355e-02 -6.77532032e-02  6.70757070e-02 -6.03456087e-02
   2.52811536e-02  6.42561689e-02 -2.35122219e-02 -4.30380441e-02
  -4.37557660e-02 -2.99136601e-02  6.12860844e-02 -4.13979813e-02
   3.85101959e-02 -5.82668968e-02  5.32812849e-02 -5.68136424e-02
  -3.90101261e-02  4.38323095e-02 -3.90594974e-02 -6.39325529e-02
   3.90814841e-02  3.99459302e-02 -2.04276666e-02 -9.69351828e-03
   3.84389684e-02  5.89610413e-02 -7.10034519e-02  5.35220876e-02
   5.79617396e-02  3.67908627e-02 -8.73243809e-03 -7.75734633e-02
   4.27910537e-02  6.00818172e-02  5.95593676e-02 -7.18579143e-02]
 [-3.38097289e-02  2.83646584e-03  5.44308797e-02  3.49074304e-02
   4.45952788e-02 -9.90281254e-03 -7.21019432e-02 -1.12666935e-03
  -7.16315210e-02  3.36852521e-02  6.44032881e-02  6.62122145e-02
  -2.07917094e-02  6.35663792e-02 -7.29154646e-02  5.16537800e-02
   4.16839123e-03  2.05432475e-02  4.84744981e-02  3.39306295e-02
   3.19155455e-02 -4.75611351e-02 -6.32584393e-02 -3.37212384e-02
   5.99820167e-03 -3.55200469e-02  2.24511251e-02 -1.17623284e-02
  -4.79640104e-02  2.15136483e-02  3.51061150e-02  3.20066437e-02
  -7.03755170e-02  6.39053658e-02 -7.84964636e-02  4.47072163e-02
   7.12099299e-02  1.72322616e-02 -9.84705985e-04  7.55087957e-02
  -5.39062247e-02  6.32452965e-03 -5.43639250e-02  1.70718506e-02
  -7.80530944e-02  2.97023728e-02  3.13083082e-03  7.18366578e-02
   4.31727618e-03 -3.96830030e-02 -4.47671972e-02  2.68122852e-02
  -5.47173619e-03 -4.53365557e-02 -4.76923101e-02 -5.44076487e-02
   1.22911930e-02 -5.26698716e-02 -6.18667230e-02 -5.57331927e-02
   1.38620064e-02 -4.49719690e-02 -4.24548984e-03 -5.92809580e-02
  -2.26254836e-02 -8.03014040e-02 -2.95571201e-02  5.49398586e-02
  -1.35048255e-02  7.26451203e-02  1.62004456e-02 -2.28068754e-02
   4.80471924e-02 -5.78725487e-02  5.92690632e-02 -6.98916167e-02
  -3.23856175e-02  5.88520989e-02  5.93767390e-02  2.85884067e-02
  -4.35938463e-02  4.04402539e-02 -3.24190743e-02  5.49671799e-03
   4.45435867e-02  2.54543051e-02 -4.25477996e-02  6.73150793e-02
   5.29275313e-02  4.40857485e-02 -2.43574381e-02  1.82929114e-02
  -5.87778911e-02 -2.37392895e-02  5.92271909e-02  2.40767449e-02
  -6.39209151e-02 -3.99151221e-02 -4.78218161e-02 -5.21656051e-02
   8.02729204e-02 -1.45151913e-02 -7.56679028e-02  6.60280511e-02
  -2.21769288e-02  6.88222125e-02  4.55579162e-03 -3.12470384e-02
  -2.23846249e-02 -5.15061319e-02 -5.76552674e-02  4.26523834e-02
   4.34057266e-02  2.05009356e-02 -1.01416633e-02 -8.80993903e-04
   3.64775285e-02 -4.60358858e-02 -1.15867928e-02 -6.77611306e-02
   1.77454203e-02  3.62935811e-02  7.66492262e-02  3.03320810e-02
   6.06800243e-02 -4.34385389e-02  2.78245285e-02 -1.92524754e-02]
 [-5.73207512e-02 -6.70858026e-02  1.05379224e-02 -9.55478102e-03
   9.32121277e-03  6.89199567e-03 -1.25713870e-02  1.74295157e-02
   6.98805079e-02 -2.39184201e-02 -3.66299488e-02 -4.97473888e-02
  -1.91574097e-02  8.04572031e-02 -6.51280284e-02  1.23863742e-02
   7.06619397e-02  2.03576013e-02  2.01096088e-02  2.48755887e-02
   4.04166207e-02 -7.15047345e-02 -5.16186021e-02  6.10747263e-02
  -2.66714208e-02  7.00889528e-03 -6.10324293e-02  6.96307644e-02
  -4.20659669e-02  5.32443598e-02 -1.71137974e-02 -4.21093218e-02
   2.45896950e-02  7.15973601e-02 -5.84831089e-03 -3.41264345e-02
  -1.03778616e-02  6.67496845e-02  3.35302949e-02  7.44671151e-02
   6.72857240e-02  7.09619448e-02 -1.14664435e-05 -4.82105352e-02
   1.28068477e-02  9.26300883e-04  2.92495489e-02  7.94712082e-02
  -4.31328975e-02 -1.37864128e-02 -3.17747816e-02  6.36872724e-02
  -1.54938102e-02 -5.59074879e-02  5.79414144e-02  1.60345435e-02
  -5.87894171e-02 -1.16268620e-02  4.10981253e-02 -4.41454314e-02
  -2.73551084e-02 -4.38865907e-02  6.89092055e-02  6.49429783e-02
   2.04460919e-02  5.41160032e-02 -6.58562481e-02 -7.57647529e-02
   4.23533693e-02 -6.69852793e-02 -4.78601083e-02 -3.22597660e-02
   4.20512334e-02 -7.07171857e-02  7.55224302e-02  3.76822278e-02
   9.75563377e-03  3.54891270e-02 -1.06823593e-02 -4.08923030e-02
  -4.21515554e-02  4.58821282e-02  1.48285925e-03 -4.86008078e-03
  -5.67421094e-02  5.99123538e-03 -1.42576247e-02  3.30234915e-02
   3.79846916e-02  6.74900636e-02 -7.43608326e-02 -1.77018344e-02
   3.27040404e-02  2.76169106e-02 -5.87221384e-02 -1.38066784e-02
   7.07243904e-02 -1.08007491e-02 -5.29779121e-02  5.80209866e-02
  -7.00866207e-02 -2.02171281e-02 -4.86570001e-02 -9.80129093e-03
   4.34683785e-02 -5.06329872e-02  7.25816116e-02  6.40967712e-02
  -1.49366707e-02  1.54972076e-02 -6.46584779e-02 -6.09316565e-02
   7.65265450e-02  7.76201859e-02  7.57466927e-02  6.32670149e-02
  -4.07314114e-02  7.29083046e-02 -2.84193158e-02  1.09459981e-02
   3.27917635e-02 -7.48944506e-02 -4.05980721e-02  2.10293978e-02
  -2.59811208e-02 -3.64332423e-02 -6.30821511e-02 -5.06492108e-02]
 [ 1.07956668e-02 -6.03747889e-02 -4.02633883e-02  1.12977095e-01
  -2.73768269e-02  1.18348405e-01 -9.51401815e-02  4.44255285e-02
   3.49878743e-02 -8.95601930e-04 -4.27223891e-02 -6.36252463e-02
   4.49476130e-02 -3.29152048e-02  8.53540376e-02  2.57858858e-02
   9.58195329e-03 -2.34727114e-02 -5.42043373e-02 -4.65415008e-02
   2.41876282e-02 -5.00788279e-02 -7.39276335e-02  5.59908375e-02
   4.53572646e-02 -4.49631810e-02 -2.57967971e-03  4.53033969e-02
  -2.10672263e-02  2.59086061e-02 -3.72077413e-02  4.89551388e-02
   6.31919876e-02  8.03939253e-02 -4.68951687e-02 -2.40330715e-02
   1.06384028e-02 -4.36035916e-02  9.34151281e-03  7.01750815e-02
   3.16529311e-02  3.14186178e-02 -1.19046792e-02  8.59424248e-02
   3.76352891e-02  3.29933465e-02  1.72100849e-02 -3.64526883e-02
   5.67607656e-02 -3.08669135e-02 -6.02129623e-02 -1.21448927e-01
   4.35891300e-02  4.19074036e-02 -6.82462752e-02  2.74978690e-02
  -5.53840771e-02 -3.57094556e-02  4.13467400e-02 -9.14216042e-03
  -1.73498467e-02 -9.02418643e-02  5.03658727e-02  8.33280608e-02
  -2.28625219e-02 -3.10624659e-04 -1.11193564e-02  3.73562239e-02
   7.48655051e-02 -2.74870396e-02  9.67978612e-02 -1.11583546e-02
  -6.14065537e-03  3.63097042e-02 -2.86073377e-03  1.73621401e-02
  -3.45874801e-02  6.15467876e-02  6.89382777e-02 -3.75684053e-02
  -2.42100004e-02  2.44613457e-02  5.64152338e-02 -1.08430237e-02
   1.61285363e-02  6.92658499e-02  1.89162865e-02  2.77546905e-02
  -3.76404151e-02  7.15961605e-02  1.25458995e-02  3.77743207e-02
   2.94047929e-02 -3.15046161e-02 -8.92595481e-03  4.54798900e-02
  -1.00884065e-02  1.02340840e-02  3.27515975e-02 -7.01745301e-02
   1.50863230e-02  8.40761587e-02 -1.10240385e-01  3.08236498e-02
  -4.70782518e-02 -1.73752904e-02 -4.86607961e-02 -2.51782909e-02
  -7.83821940e-02  1.03134170e-01 -6.10840181e-03 -1.23286424e-02
   8.47154260e-02  2.25401781e-02  4.41356227e-02  3.40794362e-02
   7.24083632e-02 -7.02930167e-02  6.79583773e-02 -5.16575873e-02
   1.35561666e-02  7.85168782e-02 -6.80886954e-02  7.52704591e-03
   1.89935304e-02  5.06423935e-02  1.65651217e-02  4.69255149e-02]
 [ 1.02876812e-01  1.07685924e-02 -6.35447353e-02  9.15778354e-02
   7.84448311e-02 -2.50137225e-02  4.36939336e-02 -6.10669479e-02
  -2.70438381e-02  1.02858827e-01  5.17775640e-02 -5.94429672e-02
   9.73901153e-02  1.34675950e-02  5.67194968e-02  2.95371562e-03
  -5.12002185e-02 -7.67898709e-02 -5.36346547e-02 -8.97832680e-03
   7.85308555e-02  3.14465091e-02 -9.71976742e-02 -9.28729773e-02
   5.22652417e-02  2.48862207e-02  1.93812158e-02  6.79511502e-02
   3.57102975e-02  1.50779812e-02  2.27658241e-03  9.46555659e-02
   1.73775107e-02  1.27458870e-01 -6.77112713e-02  1.33915335e-01
  -2.00910401e-02  3.40625495e-02  1.78069156e-02  4.20932919e-02
   3.47379334e-02  8.98982864e-03 -1.12743452e-02  4.91129309e-02
   7.16381520e-03  3.42246294e-02 -8.84628743e-02 -6.58578649e-02
   6.86035976e-02 -4.48102169e-02  6.82147266e-03 -9.71524268e-02
   6.99617490e-02 -2.42744870e-02 -9.66658350e-03  8.60553086e-02
  -5.94517626e-02 -3.69608104e-02 -4.39534746e-02 -2.58609168e-02
   5.67575768e-02 -1.08672166e-02 -6.35571256e-02  1.25083044e-01
   2.98863519e-02  8.78327936e-02 -2.70945160e-03 -6.08278103e-02
   1.18336111e-01 -1.89275425e-02 -2.31449474e-02  8.01222771e-03
   1.76468194e-02 -1.94816291e-03  6.70157820e-02  3.26770470e-02
   4.14099433e-02 -2.59961076e-02  1.05437964e-01 -4.76541109e-02
   5.80342449e-02 -4.04050201e-02  7.81928152e-02 -1.85920745e-02
  -7.00778812e-02  1.58739537e-02 -2.09286045e-02  9.52983648e-02
   7.81849176e-02  1.51462972e-01  5.65537326e-02 -1.36583708e-02
  -3.03989854e-02  6.32384568e-02 -8.78532883e-04 -5.79254478e-02
   3.23870629e-02  5.67030348e-02  1.63318738e-02  6.57380894e-02
   1.07702553e-01  1.27950385e-01 -1.01162538e-01 -1.59857497e-02
  -2.62877941e-02  7.54926279e-02  3.70771177e-02 -5.29116578e-02
  -9.16418210e-02  2.81136297e-02  3.28951189e-03 -1.01738997e-01
   8.53853580e-03  4.93623083e-04  2.63615921e-02 -7.28955269e-02
  -4.11445200e-02  3.25549841e-02  1.56617388e-02 -6.87669143e-02
   8.80124345e-02 -6.03306964e-02  3.60260159e-02  2.64224410e-02
   3.20545733e-02 -1.69165211e-03  1.29536423e-03 -3.58399339e-02]
 [-2.65876390e-03 -2.93006562e-02 -1.61640800e-03 -6.26865700e-02
  -9.08344984e-03  2.21728440e-03 -7.69251958e-02 -3.74353901e-02
  -3.61519828e-02  5.29461093e-02  7.45631456e-02 -3.90661433e-02
  -5.94336279e-02 -4.22552861e-02  5.54279163e-02 -1.13499761e-02
  -7.36817047e-02 -2.48146728e-02 -1.42922401e-02  6.93636313e-02
   7.19395280e-02  9.88075435e-02  1.00840302e-02  4.50780988e-02
   8.98437575e-02  1.70468409e-02  1.30194783e-01 -7.14020729e-02
  -2.86009721e-02 -6.43389523e-02  5.65153919e-02 -2.80679949e-02
   4.76408079e-02  1.39944315e-01 -5.88010699e-02  1.15305170e-01
  -1.79721359e-02  1.34645045e-01  7.58261383e-02 -7.81895220e-02
   8.92864075e-03  1.45195937e-02 -5.03484234e-02  1.16702274e-03
   8.10138360e-02  9.00159031e-03 -2.25552302e-02 -4.31372188e-02
  -5.68608195e-03  1.11578926e-02 -5.89072257e-02  5.98981604e-02
   4.78410199e-02 -1.21711381e-01  3.38109508e-02  8.20363313e-02
  -1.87570322e-02  2.59807557e-02 -1.16175953e-02 -6.99045509e-02
   6.46190392e-03 -2.16564257e-02 -3.24665532e-02  7.38793518e-03
  -2.16078223e-03  3.93055156e-02 -8.20868388e-02 -6.13172650e-02
  -2.93744504e-02  4.19064239e-02 -3.51941995e-02  3.97324562e-04
  -5.24168164e-02  6.04918823e-02  2.25525405e-02 -7.22663179e-02
  -2.89968699e-02 -4.68669981e-02  1.60728637e-02  6.08509704e-02
   8.51335749e-02  4.04944383e-02  3.78701501e-02  6.82446435e-02
   6.09272458e-02 -4.91919629e-02  8.25752094e-02 -1.13040276e-01
   5.51501587e-02  1.50867552e-03  5.19224331e-02  5.51591180e-02
   7.21532479e-03  4.90929894e-02 -4.78573479e-02  1.18846186e-01
   7.04880245e-03 -1.22347183e-03 -2.80556567e-02  1.31586283e-01
   2.22237799e-02 -3.92393433e-02 -4.36824327e-03  5.27411699e-02
  -4.71301228e-02 -1.80921182e-02 -3.59000340e-02 -4.56016064e-02
  -3.67771350e-02 -9.31517500e-03 -6.59978017e-03 -2.52951887e-02
  -9.17307753e-03  1.54291997e-02  6.79654302e-03  5.60242962e-03
  -1.78762507e-02 -5.27612008e-02 -3.26944701e-02 -8.08935165e-02
   9.92459878e-02 -3.16307694e-02  5.42070232e-02 -8.96262378e-03
  -7.83002377e-02  8.83748308e-02  1.02927260e-01 -9.61427391e-02]
 [ 3.15923095e-02  5.44938967e-02 -7.04485849e-02  4.59303297e-02
  -6.90969080e-02  6.05681771e-03 -5.95931895e-02 -3.34584527e-02
   1.59028545e-02  8.33480731e-02 -4.48303446e-02  4.70178276e-02
   1.32238347e-04  3.49564031e-02 -3.33405919e-02 -5.74795566e-02
  -6.90204054e-02  3.62824202e-02  1.67067423e-02  5.38238287e-02
  -6.25024065e-02  2.32422445e-02  6.80607408e-02  5.47466055e-02
  -2.94415578e-02  5.25017418e-02  6.12667836e-02 -3.60898301e-02
  -6.29435703e-02  6.06913790e-02  6.99547157e-02 -2.76663788e-02
  -4.87213768e-02 -1.49690965e-02 -1.62841994e-02  2.37172954e-02
   5.86526208e-02 -4.99222316e-02  1.72924846e-02  9.55820899e-04
   4.35970351e-02 -6.19822517e-02  5.34588918e-02 -3.63021754e-02
   3.07649374e-03  3.39871421e-02  4.61679995e-02  4.76050265e-02
  -1.25950947e-02 -6.43767938e-02  6.12687245e-02  4.29503471e-02
  -5.67438900e-02  5.13532795e-02  7.57281110e-02 -3.58920507e-02
   7.12485146e-03  3.45434248e-03  7.88721815e-02 -6.62931427e-02
   4.52656187e-02 -2.33970854e-06  6.07966147e-02 -6.82300776e-02
  -5.74845262e-02  6.24567606e-02 -2.06501521e-02  5.65411076e-02
  -9.64552164e-03 -1.70594156e-02 -6.03561522e-03  1.50591210e-02
   7.25172684e-02 -4.48404104e-02  5.39953709e-02  8.63474607e-03
  -2.13688109e-02  2.75631924e-03 -6.69218376e-02  3.26185301e-02
   1.46426773e-03 -2.57836170e-02 -7.47461841e-02 -1.89096481e-02
  -1.65352337e-02  2.81089284e-02 -3.54790315e-02 -4.06406000e-02
   1.54938065e-02 -1.79403722e-02 -8.84319097e-03  3.72674726e-02
  -6.68549328e-04 -2.30221674e-02 -6.34465069e-02  1.09777553e-02
   6.96744472e-02 -3.17145661e-02  4.81014624e-02 -3.96740399e-02
  -8.51438195e-02 -5.51350713e-02  4.51523019e-03  2.95901429e-02
   2.51624156e-02  1.20994523e-02 -2.46364977e-02  4.12352532e-02
   2.43901238e-02  1.71643030e-02  6.37053847e-02  5.51812127e-02
  -4.48936485e-02  2.69909035e-02  1.13418614e-02  5.85392267e-02
   6.72481880e-02  5.52024916e-02  6.98971972e-02 -7.11202174e-02
  -4.64199521e-02 -1.56222489e-02  5.23227714e-02 -2.83833630e-02
  -2.98214075e-03  9.00333151e-02 -2.07706951e-02 -7.10678054e-03]
 [ 7.26052746e-02 -2.57815905e-02  7.09537640e-02  2.54551619e-02
   7.06445053e-02  7.05625191e-02 -7.96274245e-02  4.23340946e-02
  -5.30238599e-02 -3.95209678e-02 -7.04710931e-03  1.74185857e-02
  -2.49523669e-03 -5.71920723e-03  6.89480975e-02 -3.03718261e-02
   1.98818222e-02  7.31583759e-02 -2.46933252e-02 -3.22128497e-02
   7.89634660e-02  4.08860967e-02 -5.30641787e-02  3.04796323e-02
   1.74092501e-02 -7.05269575e-02  2.30190754e-02  3.66653204e-02
   4.73540649e-02  8.09343830e-02 -1.44380108e-02 -6.77209869e-02
   2.36871168e-02  6.36520311e-02  9.64140147e-03  3.94705161e-02
  -7.58966058e-03  3.44972610e-02  6.18103817e-02 -1.32554024e-03
  -7.90464208e-02  1.21125653e-02 -5.05028814e-02 -5.69345057e-02
   5.60374931e-02  3.08801904e-02  1.65784732e-02 -3.78912911e-02
   7.47653469e-02  6.97094128e-02  6.88482895e-02 -2.03926824e-02
  -4.57992814e-02  1.89522132e-02 -1.42139420e-02 -4.10790555e-02
   2.81034783e-02  6.74628541e-02 -5.86208478e-02  4.98936698e-02
   3.84718627e-02 -7.21189380e-03  4.45841923e-02  1.65193155e-02
   7.93587938e-02 -3.59848812e-02  5.90846315e-02  5.48057035e-02
  -4.61925082e-02 -6.57059252e-04 -6.52342588e-02 -5.99530041e-02
  -7.23136812e-02 -6.24244586e-02 -7.23951310e-02  5.65735623e-02
   5.57943359e-02 -6.32874891e-02  1.33348778e-02 -7.90269077e-02
  -5.74395284e-02 -6.04985580e-02 -1.56480670e-02  4.34899628e-02
  -5.95016479e-02 -3.76191437e-02 -1.98042952e-02 -4.44054566e-02
   3.28727886e-02 -7.51230866e-02  1.94782317e-02 -9.62097943e-03
  -8.28586519e-04  5.47753796e-02 -9.43022221e-03 -2.39454769e-02
   3.56245711e-02 -1.40158609e-02 -6.97957724e-03  5.87238297e-02
   4.52019796e-02  2.63573453e-02 -4.66336533e-02  4.35284078e-02
   5.65516278e-02 -1.12424344e-02 -7.55699202e-02 -3.71010490e-02
  -7.05787614e-02 -7.53676221e-02 -7.64652044e-02 -4.74729538e-02
   7.05023780e-02 -4.07442898e-02  6.71997145e-02 -4.49870341e-02
  -3.15644369e-02  2.86542922e-02 -4.48939800e-02  7.94632658e-02
  -7.94595629e-02 -1.02419704e-02  6.52126223e-03  4.28177193e-02
  -6.86977208e-02 -2.75076665e-02 -2.48066485e-02  5.33301160e-02]
 [ 1.41566619e-02 -1.96910128e-02  1.79598853e-02 -4.75675613e-03
   7.37767294e-02  4.11543399e-02  4.80002686e-02 -6.54059947e-02
   8.02826062e-02 -2.17370987e-02 -6.03476204e-02  6.88712224e-02
   1.16275027e-02 -2.05212086e-03  3.52390781e-02  4.20307666e-02
   5.50134256e-02  2.27315947e-02  7.30008855e-02  3.14413309e-02
   1.11075491e-02 -3.73018980e-02  7.17116147e-03  6.48875758e-02
  -4.51105498e-02 -3.27229947e-02  8.08369592e-02 -5.21195978e-02
  -1.09015182e-02  2.27966458e-02 -4.12402377e-02  4.41690758e-02
  -7.56181702e-02 -4.66350242e-02 -9.12340730e-03  5.03699109e-02
   6.35501966e-02  6.56394735e-02  6.61463514e-02 -2.12426186e-02
  -4.76788282e-02 -5.68811335e-02 -4.29351851e-02  1.44272968e-02
  -7.40970373e-02 -7.79568627e-02  7.25577846e-02  5.04515320e-03
   5.27316406e-02 -8.20514560e-03 -3.94545421e-02 -1.52582303e-02
   5.55202588e-02  4.07660678e-02  7.54225627e-02 -5.22778854e-02
  -6.48662448e-03 -7.11363554e-03  8.10198113e-02  3.70940343e-02
  -4.10412997e-03 -2.07727365e-02  7.97591880e-02  4.50519100e-02
  -5.70114553e-02 -7.69173950e-02  1.57316476e-02 -7.31306523e-03
   2.07438245e-02  3.60622779e-02  6.48318306e-02  3.91066447e-02
  -6.76026568e-02 -4.71458100e-02  2.56595090e-02 -1.66537538e-02
   3.40991691e-02 -4.99660075e-02  8.09365734e-02  3.35552022e-02
  -6.01632521e-02 -2.83355601e-02 -7.00751692e-02 -2.69710682e-02
   3.12430561e-02 -4.96686250e-02  5.63588068e-02 -1.85689032e-02
  -1.41772628e-03  5.71162477e-02 -4.21259552e-03  4.86665890e-02
  -5.77794537e-02 -5.66807091e-02 -1.17327273e-03 -4.27183993e-02
  -7.53030851e-02 -7.89970160e-04 -5.49429916e-02 -7.34419301e-02
  -7.27161765e-04  4.77304235e-02 -4.94771935e-02 -3.01072560e-02
   6.65039942e-02  4.07198817e-03  2.34322175e-02  3.64935994e-02
  -6.78437799e-02 -6.41171560e-02  1.27709359e-02  5.46208099e-02
  -4.79214676e-02  5.16509041e-02  4.17916477e-03  7.52637759e-02
   5.38277104e-02 -3.14683840e-02  5.90776727e-02 -3.79617028e-02
   2.05669552e-02 -1.77128762e-02  7.77573511e-02 -7.62732327e-02
  -5.05769625e-02 -5.25090732e-02  2.99844816e-02 -2.47178487e-02]
 [ 5.86875305e-02  5.95672503e-02  1.25223026e-02  7.51122758e-02
  -5.21213040e-02  8.09719041e-02  3.28199938e-02  4.77694049e-02
  -7.54114017e-02 -4.25025076e-02  7.33977631e-02  5.04352972e-02
   6.58141002e-02 -4.11945060e-02 -5.96243888e-02 -3.65393683e-02
   6.42832369e-03  6.07777610e-02 -3.77177857e-02  3.00405398e-02
  -7.45835900e-03  5.44308797e-02 -6.79699630e-02  8.51809978e-04
   4.10553291e-02 -2.99898759e-02  2.30552554e-02  3.07078436e-02
   4.42917123e-02 -6.23856075e-02 -3.20982113e-02  2.75685862e-02
   3.33708674e-02  1.34567469e-02 -7.46873394e-02  4.74086180e-02
  -1.73684657e-02 -3.48715968e-02  6.96616396e-02 -4.88063507e-02
   4.48299721e-02 -4.10964787e-02  7.69327059e-02  3.24613079e-02
  -4.95795906e-02 -3.60899270e-02  2.18650997e-02 -4.55546714e-02
   7.45896176e-02 -6.80075958e-02 -6.75983056e-02 -6.72989488e-02
   4.20109853e-02 -7.43675232e-03 -6.07042015e-02 -8.36753100e-03
   9.59670544e-03  3.45736668e-02 -6.66176751e-02 -4.91942763e-02
  -7.60156289e-02 -2.54007392e-02 -5.67387789e-03 -1.82291120e-02
  -5.52019328e-02 -8.45447183e-03 -1.40198618e-02  1.92439109e-02
  -1.52369738e-02 -1.79526359e-02  2.54290104e-02 -5.99980801e-02
   1.96697563e-02 -7.22324923e-02 -1.75624862e-02  1.29443258e-02
  -1.87298022e-02 -7.65729174e-02  6.15175292e-02  7.70698860e-02
  -3.51156630e-02 -9.76419449e-03 -5.31547405e-02  1.68247297e-02
   4.87595722e-02  7.07821175e-02 -6.99106231e-02  5.43347672e-02
   7.97095522e-02  7.20715001e-02 -7.94293433e-02 -6.05736859e-02
   1.80483386e-02  7.05549344e-02 -7.59059563e-02 -1.76177919e-02
  -5.48745543e-02 -7.30423480e-02 -2.75805555e-02  7.25051835e-02
  -7.03624785e-02 -2.12760940e-02  6.96583092e-03 -1.81124434e-02
   6.59652799e-03  5.24282977e-02 -4.67310213e-02  4.86027226e-02
   1.27276182e-02  6.83716163e-02 -1.85027122e-02 -8.01845789e-02
   9.87783074e-03 -3.27536464e-02  7.67435059e-02  5.19162193e-02
  -7.34008104e-03 -3.44365984e-02  4.80018929e-02  1.63696706e-03
  -2.24321969e-02 -1.20363384e-03  4.84330580e-02  5.80580756e-02
  -5.23991920e-02  1.98306367e-02 -1.55717432e-02  2.53363252e-02]
 [ 4.51651439e-02 -3.26729864e-02  9.85207409e-03 -1.90431401e-02
   7.75180236e-02 -1.99423879e-02  4.99784872e-02 -3.90909612e-02
   2.51579657e-02  5.32660708e-02  3.12992111e-02  2.67757922e-02
   1.27065927e-03  7.85127059e-02  5.75279444e-03  5.65729961e-02
  -1.98443234e-02 -6.46676570e-02 -5.01723289e-02 -4.34370302e-02
  -5.03019355e-02  4.06871289e-02  5.51461801e-02  6.99782744e-02
  -2.45210603e-02  4.88715544e-02 -4.57530655e-02 -3.12874168e-02
   3.35469246e-02  6.38260022e-02  1.45883486e-02  7.53492042e-02
   3.05364504e-02  5.27867302e-02  8.01946148e-02 -4.01703864e-02
   1.90714002e-03  2.09408626e-02  7.41466209e-02  6.75895065e-03
   1.06130540e-02  3.66762057e-02  5.53828552e-02  2.01257542e-02
  -1.17197633e-03 -4.54419106e-03 -8.00663084e-02  4.13501188e-02
   1.66483819e-02 -5.74603528e-02  1.14845708e-02 -3.54496948e-02
  -1.08784884e-02 -1.81130320e-03 -6.34634867e-02 -5.87194897e-02
   6.86345249e-03 -2.77244896e-02 -1.29791126e-02 -1.70006305e-02
  -3.38754617e-02  3.01967561e-02  5.07324934e-03  3.44479308e-02
   5.27452454e-02  5.13699576e-02  7.26649389e-02 -4.62976098e-02
  -5.89330643e-02 -4.91420627e-02  6.20803460e-02 -4.55371328e-02
  -8.04192573e-03 -6.86254799e-02 -1.60773769e-02 -5.04310355e-02
  -4.38520499e-02  5.51115051e-02  3.45646963e-02  7.09723607e-02
  -7.49126673e-02  1.03147775e-02 -5.92745170e-02 -1.65992826e-02
  -1.36224627e-02  7.57115260e-02  4.96520773e-02  4.59790230e-04
  -4.53323796e-02 -3.28244418e-02 -3.30416337e-02  6.02566525e-02
  -7.30822012e-02 -2.31654830e-02  4.57177088e-02 -4.72820848e-02
   2.40407884e-03 -5.06205708e-02  1.83718130e-02 -2.61951759e-02
  -5.30452654e-02  2.37123892e-02 -1.17841437e-02  1.92141086e-02
  -5.74320816e-02  7.34534785e-02  4.84966710e-02  6.81443438e-02
  -6.10219091e-02 -4.34017405e-02 -1.98636428e-02  2.13469863e-02
   7.66260251e-02 -3.03383879e-02 -6.50793165e-02 -2.22415775e-02
   1.18301436e-02 -8.06800425e-02  1.76183879e-03 -3.85859795e-02
   5.46093807e-02 -5.76667339e-02  5.63119128e-02  4.93225828e-02
  -2.59472430e-02  3.66840810e-02  7.09549710e-02  6.02612644e-03]
 [ 7.05815777e-02 -3.64892818e-02  2.03812495e-02  5.72226122e-02
   2.56794989e-02 -7.90410042e-02  5.32576516e-02  5.63587621e-02
   3.87255624e-02 -7.50341862e-02 -4.36668471e-02  1.95009559e-02
   6.97540566e-02 -1.70319527e-02 -2.53294408e-02 -3.50341946e-03
   6.54960945e-02  7.02695176e-02  3.94427478e-02  7.63998851e-02
  -4.31828089e-02  1.71302110e-02 -4.98763956e-02  6.06334731e-02
   2.02815980e-03  3.56401578e-02 -1.35815963e-02  5.88423833e-02
   4.17591408e-02  7.01624975e-02  6.66098520e-02 -1.60511956e-02
   1.70303509e-02  5.71876094e-02  7.27085248e-02  7.52997622e-02
   5.02360091e-02 -6.32212535e-02  2.54815742e-02 -6.18395954e-03
   4.22315374e-02 -6.63300231e-02  3.16009894e-02  5.73560223e-02
   6.66326806e-02  2.30562016e-02  1.97438449e-02 -6.25084788e-02
  -4.17618528e-02  2.21100226e-02 -7.20134526e-02  4.63536605e-02
  -5.75043708e-02  1.67969987e-02  4.43218574e-02  2.79216394e-02
  -4.20461260e-02  1.62555426e-02 -8.08138624e-02 -6.86110705e-02
   2.45986059e-02  4.64651957e-02 -3.34303714e-02 -4.88548502e-02
  -1.52619630e-02  1.61667019e-02  6.74749240e-02 -4.16166782e-02
  -3.33889872e-02 -6.43177778e-02  4.52974439e-03  4.81771603e-02
   1.03092119e-02  5.87764382e-03 -6.14604056e-02 -5.14599532e-02
   1.46988258e-02  8.04567710e-02  7.33924583e-02 -3.64564359e-04
  -2.58996673e-02 -8.62826407e-03  5.80651537e-02 -3.50298993e-02
   7.23643377e-02 -3.25523317e-04  8.85363668e-03 -2.65275836e-02
   2.65974328e-02 -3.27441320e-02  5.06228581e-02  1.23129040e-03
   4.91122976e-02 -4.29894663e-02 -3.78674082e-02 -7.79320896e-02
  -2.05703080e-03 -4.11190093e-03 -8.03306624e-02  4.71151695e-02
   7.35318586e-02  5.76660037e-03  5.77650145e-02  2.72172838e-02
  -2.31148563e-02  2.91755199e-02  7.12798759e-02  4.18390483e-02
  -1.98899060e-02 -4.29614633e-02  2.19216421e-02 -1.78597867e-02
   3.01925167e-02 -7.43473470e-02 -7.72967935e-04  7.63427690e-02
  -1.86406896e-02 -4.19786125e-02  6.00354746e-02 -7.16690347e-02
  -7.74092600e-02  7.95783773e-02 -1.03280023e-02  6.96244016e-02
  -5.48266917e-02  5.70014492e-02 -6.81545138e-02  1.66588426e-02]
 [-7.84363970e-02 -6.25565350e-02  2.72105187e-02 -2.79455073e-02
   1.39119551e-02  5.36339656e-02 -7.03351200e-03  1.88724399e-02
   1.21042058e-02 -2.65593566e-02 -4.59978469e-02 -5.43033183e-02
   4.48779687e-02 -2.29237750e-02 -4.42242175e-02 -2.23729014e-03
   5.89297712e-03 -3.51721905e-02  4.46392670e-02  4.39653471e-02
   8.45178962e-04 -4.40567471e-02 -7.53465444e-02  2.68176571e-02
   4.07758132e-02 -4.64168303e-02 -7.65904561e-02 -7.80565888e-02
  -7.30960071e-02 -1.66772529e-02 -2.93073691e-02 -1.62354484e-02
   3.23466212e-03  5.17724529e-02 -5.53822406e-02 -1.74789205e-02
   4.19126302e-02 -5.25467843e-03  3.65598500e-03  6.71908632e-02
   3.93182635e-02  7.01734051e-02 -7.75018558e-02  5.23875728e-02
  -3.94972004e-02 -3.57592031e-02  1.74763724e-02  7.71529153e-02
  -3.16703133e-02 -3.47387418e-02  6.28119931e-02 -4.41541746e-02
   5.72779700e-02  3.07380930e-02  7.26799443e-02 -5.98148890e-02
   1.18754581e-02  2.25805417e-02  2.69192457e-02 -4.99778837e-02
  -6.38190582e-02  7.99896643e-02 -4.75391895e-02 -7.59346187e-02
  -2.55554877e-02  3.47342715e-02 -3.60902771e-02  3.39791328e-02
  -3.38614993e-02  4.05699015e-04 -1.61807835e-02  1.31763667e-02
   1.97442323e-02 -6.93870559e-02  4.96974960e-02  9.99844074e-03
  -4.71641868e-03 -3.53269167e-02 -7.74525180e-02  4.39689383e-02
   4.19513285e-02  1.20785683e-02 -7.34227896e-02 -1.72505528e-02
  -3.51585746e-02  5.61886802e-02 -3.98288928e-02 -5.24058044e-02
   6.27387241e-02  6.57921657e-02  3.29913497e-02  4.74801138e-02
   7.39747360e-02 -1.34125054e-02 -4.19783443e-02  7.34064057e-02
   7.40399435e-02 -6.73477799e-02  1.38992295e-02  6.00288138e-02
  -1.45365819e-02 -6.24686480e-04 -4.38130461e-02 -7.11749196e-02
  -5.69520071e-02  2.19865069e-02  2.40849853e-02 -4.49509881e-02
  -7.15137273e-02 -5.82288802e-02  7.79911354e-02  6.73424825e-02
   6.64243922e-02  4.27432358e-04 -5.65021224e-02 -1.58116519e-02
   4.08731401e-04  5.66200539e-02 -7.83411562e-02  5.34566715e-02
  -7.31641948e-02 -2.23503746e-02 -1.46916732e-02  1.34785622e-02
   2.98656821e-02  1.48190558e-02 -3.51359509e-02 -5.18309921e-02]
 [ 6.71245530e-02  5.61171398e-02 -4.53428999e-02 -2.14972086e-02
   2.87806690e-02  3.08432132e-02 -6.05240054e-02 -5.83763495e-02
   7.12083802e-02 -6.77809119e-04 -1.21456385e-03  6.66451827e-02
  -5.80477566e-02 -6.09829053e-02 -3.66735011e-02 -5.92479855e-02
  -1.88104808e-04  7.81511888e-02 -4.09248695e-02 -5.22058681e-02
  -7.74862096e-02 -6.71461150e-02 -2.43796408e-02 -2.43310444e-02
   6.84536994e-04  5.74089214e-02 -1.99527182e-02 -4.44567986e-02
   3.90392691e-02  5.53241149e-02 -1.90694779e-02 -2.55029239e-02
   9.74368304e-03 -8.09963048e-03 -5.62680326e-02  2.32585594e-02
  -3.47209498e-02  7.00587407e-02  7.64393434e-02 -6.40032738e-02
   7.99082145e-02 -7.95330107e-03  4.56560031e-02  1.47601217e-03
  -1.35451257e-02  6.55641481e-02  7.85484090e-02  7.56089166e-02
   4.27372754e-02  5.53982779e-02  3.28743160e-02  4.76073697e-02
   7.54116476e-03  7.06921443e-02 -2.42659114e-02 -5.38175218e-02
  -5.56711927e-02  1.79553404e-02 -3.00717317e-02  4.06155735e-02
  -3.02960947e-02 -6.05183206e-02  3.09062377e-02 -4.76968512e-02
  -2.28226930e-03  6.71089217e-02 -2.91979499e-02  5.76114655e-03
   4.82298359e-02 -7.31027201e-02 -7.52284825e-02 -8.13732296e-03
   1.27865598e-02 -5.56111485e-02 -4.62881923e-02 -5.95592558e-02
  -4.59991619e-02 -5.10062724e-02 -1.79978684e-02 -7.53603876e-03
   5.89344874e-02 -7.33456239e-02  7.25123957e-02 -6.82383031e-02
   1.19158700e-02  2.69150734e-03 -6.31446391e-02  7.73648843e-02
   6.83173761e-02  4.54741493e-02 -4.09557335e-02 -1.21818110e-02
  -6.83605820e-02 -2.88847685e-02  2.67533958e-02 -1.16189718e-02
   9.57126170e-03 -3.09149995e-02  1.85862184e-04 -3.25309671e-02
  -7.76708871e-02 -1.08665749e-02 -1.51855573e-02 -2.11985298e-02
  -7.97827840e-02 -4.82864790e-02  7.57720098e-02 -7.22095966e-02
   3.21395397e-02  6.30678236e-03 -4.80299555e-02 -4.77424711e-02
  -2.77281441e-02  7.65008405e-02  1.72778592e-02  8.00800547e-02
   9.13210958e-03  8.94365460e-03 -4.98116128e-02 -2.43852101e-02
  -5.05491942e-02  1.62930787e-03 -5.94263636e-02  7.03570619e-02
  -6.83938265e-02  1.29377097e-02  3.40124369e-02  5.37508652e-02]
 [-3.50289717e-02 -2.23315023e-02 -7.33588189e-02 -3.17134708e-03
  -5.62644526e-02 -4.92543206e-02 -6.62156940e-03  4.58185598e-02
  -5.66243008e-02 -1.19506642e-02 -2.52351873e-02 -2.80274227e-02
   6.99179396e-02 -3.56289409e-02  7.97592178e-02 -6.06956929e-02
   1.44198164e-02  2.79573053e-02  3.79999876e-02  3.34813297e-02
  -4.05201390e-02 -1.80967897e-03  3.87330651e-02  7.97555223e-02
   3.61109525e-02 -5.34195192e-02  3.01671475e-02 -6.44125715e-02
   7.30325058e-02  3.62414643e-02 -6.65170997e-02  9.15167481e-03
  -1.95540972e-02  7.74787441e-02 -3.14419866e-02  1.26190335e-02
  -3.35073173e-02  4.92638871e-02  3.56701910e-02 -1.34479478e-02
   6.52887896e-02  1.84058100e-02  8.11340660e-03  9.61488485e-03
  -4.09194157e-02 -1.01899654e-02  1.44989491e-02 -5.86771220e-02
   4.65674773e-02 -1.04772374e-02  2.42935047e-02 -9.49509442e-04
  -1.64504349e-02  4.16156575e-02  3.50960344e-02  2.63299048e-03
   3.85269970e-02 -3.00543271e-02  3.95826548e-02 -7.32948035e-02
   7.96944275e-02  7.84865990e-02 -5.23917302e-02  1.86234042e-02
   3.15455794e-02  2.18781903e-02  4.19939533e-02 -5.38556203e-02
   7.85509571e-02  1.58649832e-02  4.99122068e-02 -6.40571341e-02
   5.89130893e-02  6.57075420e-02 -4.31120917e-02  7.50282183e-02
  -3.71195562e-02  3.84899825e-02  6.75612316e-02  1.71339065e-02
  -2.01445073e-03  7.05477819e-02 -1.51355863e-02  2.79227421e-02
  -8.09794590e-02 -5.78729585e-02 -7.07099885e-02 -3.31326388e-02
  -4.87025231e-02 -3.61253545e-02 -2.60785110e-02  4.80205640e-02
   5.09812757e-02  7.71589652e-02  1.01361871e-02 -2.52271034e-02
  -1.29380748e-02  5.51771745e-02 -3.93280499e-02 -7.30728954e-02
   1.39560252e-02  3.72993425e-02  1.83219388e-02 -1.79874450e-02
   6.99355230e-02 -6.96152523e-02 -5.52343614e-02  2.44087055e-02
  -3.18018347e-03  4.61320356e-02  6.21881858e-02 -2.89686956e-02
   7.57502243e-02  5.58482111e-03 -1.54364333e-02  7.31144324e-02
  -3.92243192e-02  2.41591036e-02 -2.85206847e-02 -2.28285156e-02
  -6.55441731e-02  1.11469030e-02  7.02581555e-03  6.04314283e-02
   6.05331883e-02  1.98890716e-02 -7.42323473e-02 -2.14378536e-03]
 [ 1.43416226e-04  4.47590426e-02 -6.86810166e-02 -4.85232547e-02
  -2.65553594e-04  2.19434574e-02  5.29749170e-02 -6.78787455e-02
   6.00122437e-02 -6.94326609e-02  2.94801518e-02  1.23589337e-02
   2.20001414e-02 -3.73662375e-02  5.63742742e-02 -7.24016652e-02
  -5.00230938e-02 -1.82838961e-02  7.99555555e-02 -7.58146644e-02
  -7.14361444e-02  1.56349018e-02  5.32746986e-02  2.18251646e-02
   3.60232666e-02  5.19115478e-03 -4.17465530e-02  2.77670920e-02
   4.33560610e-02 -6.98988289e-02 -1.85992867e-02  3.51666585e-02
   5.72778657e-02 -5.07559776e-02 -2.05088295e-02  3.42572406e-02
  -7.34383166e-02  6.30673245e-02  1.21202767e-02  5.99119142e-02
  -5.75132668e-02 -6.60428405e-03  1.39554664e-02 -6.34328574e-02
  -3.70304473e-02 -3.33459973e-02 -4.33019549e-02  7.44518414e-02
  -7.45974481e-04  6.21715263e-02 -7.82664120e-02  5.16513959e-02
   4.90484014e-02 -2.79444233e-02 -5.89555539e-02 -3.68102416e-02
  -7.10098296e-02  4.44433615e-02  3.39453891e-02  2.57479027e-02
  -5.36188185e-02 -6.61954433e-02 -4.80421185e-02 -5.78081161e-02
  -2.90125944e-02  1.53572410e-02 -5.55666685e-02  5.79608157e-02
  -3.71258222e-02  1.40121430e-02  7.73908943e-03  2.43576169e-02
   3.81283462e-03  7.13722408e-03  7.96608999e-02 -7.50480592e-03
   1.21293962e-03 -6.13496527e-02 -2.50327922e-02  8.90471041e-03
  -5.69687933e-02 -2.48055644e-02 -2.68574059e-03  7.94385895e-02
  -3.63727883e-02 -5.06995693e-02  3.56076136e-02  5.20015731e-02
   1.41234919e-02 -3.34851183e-02 -6.55545741e-02  1.57477558e-02
  -5.81817478e-02 -1.71511769e-02  3.94414365e-03  7.10608885e-02
   7.87218288e-02 -2.47188918e-02 -7.50938281e-02 -6.22140542e-02
   1.90629810e-02 -5.05764410e-02 -1.62234902e-03 -7.14275017e-02
  -1.39244497e-02  7.22306445e-02 -7.18369335e-02 -7.70175606e-02
   7.26472363e-02  1.10982880e-02  2.25493312e-02 -2.92809904e-02
  -5.42260818e-02 -5.76834604e-02  4.30212766e-02 -7.51906559e-02
  -2.99783871e-02 -2.92976797e-02  4.90042791e-02  7.74685070e-02
  -4.92270738e-02  3.87583077e-02  2.57223174e-02 -5.92787154e-02
   2.74740010e-02  2.51131803e-02 -3.84754241e-02 -1.77327767e-02]
 [-4.16965038e-03  3.95972580e-02 -6.56721145e-02  7.31680766e-02
  -2.80023403e-02  9.65924561e-03  5.95631227e-02 -4.96778302e-02
  -8.29603523e-03 -7.71859586e-02  4.32753637e-02 -4.57169004e-02
   5.49713448e-02 -2.58143693e-02  1.25787705e-02  6.99085221e-02
   1.67563260e-02 -7.14156255e-02  7.92734697e-02 -7.56790265e-02
   3.59995663e-03 -2.33901180e-02  4.06594127e-02  6.30763099e-02
  -4.25789133e-02  2.08143741e-02  6.03795797e-03  1.31033584e-02
   2.49702111e-02 -2.57023610e-02 -1.01129636e-02  5.55502623e-03
  -2.18106806e-03  2.36732140e-02  6.59500584e-02  2.36748531e-02
   6.66850731e-02 -2.32793391e-04 -3.17415558e-02 -7.08257109e-02
   1.65671110e-03 -5.74929193e-02 -6.16393983e-02 -8.02238137e-02
  -6.73456490e-02 -6.72276318e-03 -7.81882107e-02  4.05091941e-02
  -2.55626030e-02  6.18448481e-02 -2.33310014e-02  5.26824668e-02
  -4.79948930e-02  2.77656242e-02  3.26236188e-02  7.93696418e-02
  -7.58112222e-02 -1.41094774e-02  8.23144615e-03 -2.36101896e-02
   3.08308974e-02 -5.24464548e-02  5.19855693e-02 -2.28015557e-02
  -1.93614848e-02  5.80110922e-02 -7.63028041e-02 -3.13929468e-02
   7.93371275e-02 -5.34283593e-02 -3.80733795e-02  2.62572169e-02
   4.44901958e-02  7.37803504e-02 -6.05547912e-02 -5.65547422e-02
  -1.83194652e-02 -7.92979375e-02  7.59518817e-02 -2.26360783e-02
  -2.14596726e-02  2.56158039e-02 -1.14778802e-02  6.37641177e-02
   2.24272162e-03  2.38356516e-02 -5.83454221e-03  7.60542080e-02
   2.18515620e-02 -3.82101014e-02 -2.12432779e-02 -6.40213490e-04
   3.76714543e-02 -8.39044154e-03 -4.46434319e-02  7.55563602e-02
  -5.24763763e-03  6.14470169e-02  1.21947154e-02  7.38683417e-02
  -2.99399607e-02  2.57611126e-02  2.11742967e-02 -3.23542506e-02
   6.71804473e-02  5.81081212e-03  3.08572724e-02 -4.22586128e-02
  -4.82970737e-02 -1.09321922e-02  6.41535893e-02  5.92480078e-02
   4.30059060e-02 -6.60763383e-02  1.87226832e-02  3.02277133e-02
   4.51609418e-02 -7.34196901e-02  5.72017208e-02  7.27684125e-02
   2.80086100e-02  5.94971552e-02 -7.86867142e-02 -3.69378924e-03
  -1.09186918e-02 -7.03580901e-02 -7.14015663e-02 -5.21909967e-02]
 [ 4.10273075e-02 -2.63331570e-02  3.01582143e-02 -7.36733899e-02
   7.87448362e-02  4.12865952e-02  5.04081771e-02  2.64376998e-02
   3.04373205e-02 -1.31123513e-02  4.15239483e-02 -4.12620530e-02
  -5.19757234e-02  6.14371225e-02  2.38760933e-02  7.54779577e-03
  -3.22225764e-02 -2.14209184e-02  2.84537971e-02 -7.98709095e-02
   4.96239588e-02 -2.71918923e-02 -1.52862668e-02  2.29213014e-02
  -8.14028084e-04 -2.33997405e-03  5.57572469e-02 -5.43076918e-02
  -3.73963267e-02  4.98818532e-02 -5.05713969e-02 -4.22170348e-02
   1.53531209e-02  7.94108883e-02  2.45757326e-02 -5.30471988e-02
  -3.93095240e-02  5.26734516e-02 -7.64549524e-03 -3.39894593e-02
   5.09995297e-02 -2.33697556e-02  6.47031292e-02 -8.07477832e-02
  -2.44860388e-02  1.16960183e-02 -1.68863162e-02 -5.02775498e-02
  -5.69805503e-04  3.70324552e-02 -5.33342212e-02 -1.66259483e-02
  -2.13237256e-02  7.97505453e-02 -2.35575438e-03  7.67044052e-02
  -8.02893713e-02  3.76182720e-02  2.62686014e-02  7.58686140e-02
   2.41100863e-02 -6.77195713e-02  1.50612742e-03 -3.00164632e-02
  -5.86250797e-02 -7.88704082e-02 -5.19085974e-02  6.32911101e-02
   5.64429536e-02 -1.64806023e-02  2.17109174e-02  3.07341889e-02
  -1.23371035e-02 -6.05058074e-02 -4.11207303e-02 -4.11188714e-02
  -1.14254579e-02  1.48394182e-02  3.13751549e-02  3.39205414e-02
  -4.93309200e-02 -1.54061243e-02  7.30006322e-02 -4.79836576e-02
  -5.58753088e-02  6.33052811e-02  6.51051179e-02 -5.32247052e-02
   2.17060819e-02 -7.87997246e-02 -7.21896440e-02 -7.40144625e-02
  -1.73409432e-02  6.88126013e-02  7.51121566e-02 -2.70595215e-02
  -3.43305878e-02 -8.85641575e-03  6.42037764e-02  2.45051086e-02
  -5.64660169e-02  5.73674962e-02 -2.27534808e-02 -5.26529327e-02
  -5.89401983e-02 -4.90588509e-02  2.36221775e-02 -4.28774990e-02
   2.19338462e-02 -1.03375986e-02 -4.45973873e-02 -1.25084370e-02
   4.60769758e-02 -5.58515042e-02  5.55700138e-02 -1.90013312e-02
   7.60727003e-02 -1.20134726e-02 -5.72900809e-02 -6.51732609e-02
   6.40099421e-02 -1.57928541e-02  1.99309438e-02  2.19942629e-02
  -7.15702772e-03 -1.25114769e-02 -4.65557761e-02  3.91516238e-02]
 [-1.82827190e-02 -7.66965896e-02  4.11681682e-02  5.47117665e-02
  -7.78166428e-02  7.94947147e-03 -8.92536342e-03 -7.42608905e-02
  -4.36591692e-02 -4.22118343e-02  6.12649396e-02  1.77174211e-02
  -3.85107361e-02 -1.63162872e-02  3.61662582e-02 -7.76425228e-02
  -7.51586482e-02  5.38234189e-02  7.44903833e-03 -2.87211277e-02
  -4.99487966e-02 -4.78172526e-02 -3.06998603e-02 -5.90801239e-04
   6.19536266e-02  3.55865508e-02  1.47296935e-02  4.31762710e-02
  -3.01093273e-02  7.25045428e-02 -2.26617604e-02 -3.15518081e-02
  -1.69249400e-02  7.73977861e-02 -6.03818893e-03  1.90640986e-02
   4.87557724e-02  1.11645982e-02 -1.51514038e-02 -3.84286791e-03
  -3.08993943e-02  2.75240466e-02 -7.17994943e-02  2.80678272e-04
   4.36009616e-02  3.67381498e-02 -6.31805435e-02 -5.54159507e-02
   1.94868371e-02  2.51142681e-03  7.93370977e-02 -2.29647532e-02
  -2.85637341e-02  1.48534030e-02  1.10160783e-02 -2.91593894e-02
   1.63116232e-02 -2.53182612e-02 -4.95155156e-03  6.94841221e-02
  -1.42853707e-03  6.44236878e-02  4.23493087e-02  2.22384930e-03
   5.83219007e-02  6.42327219e-03 -3.97798307e-02  5.62941059e-02
   3.11298445e-02  2.24120617e-02 -7.28779286e-02  2.41081864e-02
  -2.61064917e-02  6.41555414e-02  4.69965488e-03 -4.63808030e-02
   3.59601527e-03 -7.94145688e-02 -9.34473425e-03 -4.72415313e-02
   3.47873941e-02  5.27792647e-02  3.90080363e-03  4.00985479e-02
   6.71431348e-02 -2.78313346e-02  3.09277028e-02  7.55741075e-02
   6.41276911e-02 -1.04017034e-02  2.27645412e-02 -4.22864594e-02
  -7.40626529e-02  4.37806919e-02  3.82170081e-02 -5.56706116e-02
   1.41379833e-02 -5.54037094e-02  1.33592486e-02 -5.61135784e-02
  -1.48633048e-02  7.07889125e-02 -2.10835226e-02  6.81718066e-02
   8.83110613e-03 -5.17476462e-02 -1.83936805e-02 -5.45856208e-02
   4.07612324e-02 -5.28873131e-02 -1.93781368e-02 -1.43319368e-04
  -2.43752711e-02 -6.62515461e-02 -3.45423818e-02  4.88160625e-02
  -1.24239326e-02 -6.40983135e-03 -7.12042004e-02 -6.85585439e-02
   3.38442847e-02 -1.25674158e-03  6.73414841e-02  2.26828232e-02
   4.42140326e-02  7.96731934e-02 -1.52237117e-02 -7.99720138e-02]
 [-3.73016670e-02  3.35704982e-02  2.27458999e-02  4.51202169e-02
   1.61002353e-02  3.03131342e-02  1.63287967e-02 -2.07321867e-02
  -2.79514231e-02  4.71907929e-02 -1.94720626e-02  6.88716993e-02
   3.30373645e-03 -5.92166409e-02 -4.27917913e-02 -2.66142190e-02
   3.45997214e-02 -4.73371409e-02 -2.44006813e-02  1.04639381e-02
  -1.91567093e-03 -7.28796348e-02  6.92122206e-02 -4.94889915e-04
   3.71527001e-02  4.51622829e-02 -5.53539395e-03 -7.47317225e-02
   2.75182426e-02  3.64651307e-02  5.72919846e-04 -1.60544366e-03
   5.75491115e-02  6.46123663e-02  6.35400489e-02  7.43126348e-02
  -8.66307318e-03 -7.49497414e-02 -6.32847846e-03  2.98555493e-02
  -7.73389637e-02 -8.57129693e-04  1.24870911e-02  7.31203482e-02
  -5.01504578e-02 -1.22284144e-03  5.03034964e-02 -1.82170048e-02
  -7.71293193e-02 -5.74396439e-02  9.12570208e-03 -8.39183480e-03
   7.45011866e-03  1.51590779e-02  5.52759841e-02 -7.02144057e-02
  -8.09511468e-02 -4.51049991e-02 -5.51409945e-02  1.38023049e-02
   5.91163263e-02 -2.11360864e-02 -4.48800549e-02 -5.89035712e-02
  -5.94165586e-02  4.52394038e-03 -5.15371487e-02 -6.16680793e-02
   7.31586888e-02  6.59980401e-02 -7.27965161e-02 -6.44869432e-02
  -3.07032242e-02  2.60607004e-02 -1.77401081e-02 -3.87860946e-02
  -7.67044574e-02 -3.52614373e-02  7.63514116e-02 -3.79034169e-02
  -3.49874534e-02  7.78597072e-02 -6.55470118e-02 -7.30201229e-02
  -5.61313480e-02  3.30611989e-02  1.36917681e-02  7.92920515e-02
  -4.73025255e-02 -5.24918064e-02 -1.80878043e-02 -4.31574397e-02
  -1.46328434e-02 -9.95033234e-03  6.45166561e-02 -3.83416414e-02
   6.20670542e-02 -8.02251920e-02 -3.23694535e-02 -7.87732527e-02
  -1.54510513e-02 -4.39415276e-02  3.91030088e-02 -7.39342272e-02
   6.93641976e-02  5.50978109e-02 -3.24831605e-02 -5.72178885e-02
  -5.23439422e-02  3.87182385e-02 -2.03891993e-02  7.24975839e-02
   1.14347339e-02  1.56913474e-02  4.95755151e-02 -6.13898188e-02
  -3.16789187e-02 -2.32375003e-02  1.55319199e-02  6.90388158e-02
  -3.27589065e-02  5.98698631e-02 -4.21280041e-02  7.43221492e-03
   2.58880258e-02  4.16030660e-02 -5.12165390e-02  5.74941561e-02]
 [-2.71365047e-03 -4.87344675e-02 -6.64234012e-02 -1.37351453e-02
  -3.24470773e-02 -7.63687864e-02  7.67155513e-02 -6.74038529e-02
  -4.28446978e-02  5.70380613e-02  5.81927672e-02 -2.51972042e-02
   4.27720845e-02 -5.79050183e-02  1.90838873e-02  1.38461292e-02
  -4.72155996e-02 -5.29945605e-02  3.38476300e-02  4.13466617e-02
   5.82745895e-02 -6.39649034e-02  2.29225382e-02  9.22736526e-03
   3.56123075e-02  2.29612365e-02  4.37527895e-04  5.80593422e-02
  -2.85721570e-03  1.81418806e-02 -2.61078775e-03 -5.39916828e-02
  -1.45417452e-02 -7.95802921e-02  7.40399957e-03 -7.79410452e-02
   4.38240469e-02  3.93541753e-02 -6.63518906e-04  6.24396577e-02
   5.97807243e-02  5.05779311e-02 -2.72132419e-02  5.18633053e-02
   6.58027455e-02 -3.43070738e-02  3.76368165e-02 -2.90492773e-02
   1.74327791e-02 -3.86997461e-02  5.91838434e-02  1.43991262e-02
   4.60165069e-02  5.05761579e-02 -2.12498344e-02 -6.71679527e-02
  -2.84543149e-02 -6.01351261e-03  1.30709484e-02 -5.64343482e-03
   5.88900968e-02  3.64107713e-02  4.34560403e-02  3.28295901e-02
  -7.01638609e-02  2.47767344e-02  6.25324771e-02 -3.65175381e-02
   7.43752718e-03 -5.37012815e-02 -7.38121048e-02 -6.82335049e-02
  -3.18098776e-02 -2.60562524e-02  1.58999115e-02  7.40399435e-02
  -5.26879914e-02  1.85172930e-02  5.29432818e-02 -2.46776044e-02
  -7.21463785e-02  9.16083902e-03  6.27472773e-02  7.42931589e-02
  -1.47378370e-02  5.25825545e-02  6.37586489e-02 -4.47525196e-02
  -2.86896452e-02 -5.95632195e-02 -5.43765724e-03 -6.94844127e-03
   5.23977801e-02 -2.26680264e-02 -1.01437122e-02 -7.68868402e-02
  -3.60173136e-02 -7.05221370e-02 -4.49308380e-02 -4.43415605e-02
   7.61318207e-03 -4.28435989e-02  5.62314317e-02 -4.37423848e-02
   5.88630959e-02 -5.13162091e-02 -3.45807299e-02  7.47456178e-02
   6.82697520e-02 -1.50733143e-02 -7.41423666e-02 -6.94192201e-02
   6.73242733e-02 -7.37910271e-02  3.11215147e-02 -3.90450507e-02
   3.81912664e-02 -3.80906090e-02 -3.30613777e-02  7.24611953e-02
  -2.81107314e-02 -2.70509943e-02 -7.69439638e-02 -3.05925347e-02
  -4.54689451e-02  1.82489529e-02 -1.03694871e-02 -2.67953016e-02]
 [ 4.61468324e-02  7.00733289e-02  2.50741839e-04 -5.47675714e-02
  -5.78103364e-02 -6.09635450e-02  6.11857399e-02  4.43452224e-02
   5.73474839e-02  5.55792376e-02 -2.79535353e-03  5.23680523e-02
   4.64591756e-02  2.76620835e-02 -1.59630179e-03 -1.87907368e-02
  -5.84661588e-02 -7.70429149e-02 -5.19758984e-02 -4.48869802e-02
   2.68730596e-02 -4.90999222e-02 -8.19382817e-03  2.63781175e-02
   3.45998183e-02 -1.03417709e-02  3.70413139e-02  7.55958483e-02
  -3.28734070e-02  6.40014336e-02 -6.01343773e-02  5.83094358e-03
   3.06221992e-02 -3.64949480e-02 -3.62265520e-02 -5.81039116e-02
  -7.50531405e-02 -4.04883288e-02  4.30032536e-02 -2.52508484e-02
  -5.43557629e-02  6.19992539e-02  6.86056912e-03 -6.08101934e-02
   4.94261831e-03  2.68962681e-02 -7.36708194e-03 -7.37377331e-02
  -6.21974841e-02  4.70960364e-02 -7.14913756e-03 -3.06494646e-02
   5.76498434e-02  1.31434873e-02  5.33271953e-02 -7.72451758e-02
  -4.04009968e-03 -6.19940832e-02 -2.14373581e-02  3.66100520e-02
   9.08782333e-03 -6.22706190e-02  6.37068227e-02  7.84387812e-02
  -7.14946538e-03  4.64243963e-02  7.16248825e-02 -6.03262521e-02
  -3.28548439e-02  6.35003224e-02 -3.36562023e-02  3.93763185e-05
   2.57305354e-02 -7.36523718e-02  4.78698537e-02  6.52375817e-03
   3.05293128e-02  5.95381334e-02 -4.59532924e-02 -6.07722327e-02
  -7.95576721e-02 -6.39726073e-02 -1.68462098e-03 -2.44505331e-02
   7.89784268e-02 -5.28929755e-02  5.84676117e-03  7.98100904e-02
   3.30229923e-02 -5.77171668e-02  3.44347209e-02  5.96832708e-02
   2.69139856e-02  3.07510868e-02  2.18047872e-02 -5.74653074e-02
  -1.08599812e-02 -3.49405967e-02 -7.00238645e-02 -6.87881485e-02
   3.69079411e-03  7.12977573e-02 -2.40119211e-02 -2.77882479e-02
   2.87730321e-02 -3.80929522e-02 -2.39245594e-03  6.80368617e-02
  -3.22364420e-02  2.52716020e-02 -1.77210793e-02 -2.84754150e-02
  -3.60891223e-04 -6.54767379e-02 -8.09982195e-02  8.67392123e-03
   2.22260505e-02  3.34130973e-03 -6.68600276e-02 -4.71395999e-03
   5.52287921e-02  4.33132872e-02  2.76184008e-02  2.19683647e-02
   6.60696700e-02  1.50409341e-03  1.37681365e-02 -2.99495161e-02]
 [ 5.20243719e-02  1.97687298e-02 -1.79902241e-02  5.24814650e-02
   1.85771808e-02  2.93288156e-02  1.68929920e-02  6.59155771e-02
   7.78931603e-02 -3.66214029e-02 -6.56997636e-02 -5.61645702e-02
   4.41061035e-02 -7.42423832e-02 -1.47865638e-02  6.70033470e-02
  -5.13934456e-02 -7.11954013e-02  3.01393047e-02 -1.13960952e-02
   3.67529988e-02  4.00157571e-02  1.55747980e-02  7.63586685e-02
  -2.05469616e-02  1.58788711e-02  3.16475555e-02  2.79152840e-02
   5.97250834e-02 -5.94806075e-02  7.15964064e-02  8.05865899e-02
  -1.03925392e-02  9.92417336e-06  6.08204678e-02  5.97302839e-02
  -6.34369701e-02  6.44247010e-02  3.15884352e-02 -7.93322921e-03
   1.16377473e-02  6.62329271e-02  3.19962204e-03 -7.25242496e-02
   5.78157976e-02  6.01279810e-02  6.12338707e-02  5.52054122e-02
   4.59698215e-02  1.04185119e-02  4.17180732e-02  7.95845613e-02
   2.25220770e-02  4.63761017e-02 -2.85531543e-02  1.90116987e-02
   3.44021991e-02  1.04969069e-02  3.46068963e-02 -9.24662501e-03
  -5.42541221e-02  4.78529856e-02 -1.52656734e-02  3.18918154e-02
  -7.60335699e-02 -2.34533735e-02  6.96761981e-02  3.96676660e-02
   6.85259178e-02 -2.47529261e-02  7.13808015e-02  2.64481977e-02
  -6.28899038e-03 -7.87097439e-02 -1.20433345e-02  7.43088648e-02
   9.49276239e-03 -7.66810551e-02  2.53169239e-03 -5.99075407e-02
   6.17630556e-02 -7.60721341e-02  7.12357983e-02  2.21135467e-03
   1.43243074e-02 -3.33624333e-03 -3.72175649e-02 -2.03866661e-02
  -6.64331168e-02  4.92470041e-02  7.73003921e-02 -7.30362311e-02
  -7.08365589e-02 -4.75693941e-02  7.56576881e-02  8.02949443e-02
  -2.41044164e-03 -4.03856039e-02 -4.06554677e-02  1.53046176e-02
   4.91708741e-02 -5.97123764e-02 -7.00311363e-03  2.74167210e-02
   7.03922287e-02 -4.15680818e-02 -1.33553967e-02  2.16361508e-02
   2.54684463e-02 -5.32676168e-02  5.28853610e-02 -5.83395362e-04
   5.08176312e-02 -6.59621283e-02  2.88509652e-02 -7.17751607e-02
   6.65073171e-02  4.73926738e-02  4.62664738e-02  1.30469352e-03
   2.41800323e-02  3.25399190e-02 -2.11383104e-02  7.64084235e-02
  -7.17106164e-02 -5.97281978e-02  4.74722683e-03  6.52417019e-02]
 [-4.88423742e-02 -5.21111861e-02 -2.25756709e-02  4.76439446e-02
   8.57023448e-02  5.24208322e-02 -8.41830894e-02 -6.03544787e-02
  -2.87246481e-02  5.65581098e-02 -4.36686724e-02 -7.07399696e-02
   3.87372612e-03  4.32061218e-02 -6.05385639e-02 -7.67313167e-02
  -1.31829772e-02  7.84059986e-02  3.07027902e-02  7.58097470e-02
   4.69746292e-02 -9.90122370e-03 -4.42619435e-02 -4.72610295e-02
   4.83964048e-02 -6.98663592e-02  2.52458546e-02 -9.39621031e-03
  -1.47522707e-02  7.34126419e-02  6.55264184e-02 -5.23132309e-02
   1.49175674e-02 -6.89799637e-02  6.80343434e-02  9.37855989e-03
   4.94401306e-02 -5.64880706e-02 -2.08544470e-02 -7.68575445e-02
   1.54297492e-02  3.02258749e-02  2.79088020e-02 -3.78414057e-03
   7.63651505e-02  3.01520079e-02  1.46704642e-02  4.37879264e-02
  -3.39710116e-02 -1.90228224e-02  1.86137706e-02 -6.95310533e-02
   3.45494971e-02  7.56132975e-02  4.01206389e-02  8.12643766e-03
  -1.73015054e-02  4.97484244e-02 -7.89613128e-02  3.30259874e-02
   6.74472004e-02  7.16714337e-02 -5.40910028e-02  3.22271027e-02
   1.84501950e-02 -7.94317871e-02  5.83535712e-03  5.07147945e-02
  -5.89557029e-02  2.90022027e-02  7.82081932e-02 -7.93734714e-02
  -4.51435000e-02  6.83829188e-03 -6.18219227e-02 -6.51643053e-02
   2.88052913e-02 -6.62011355e-02  1.17379231e-02  3.69010381e-02
  -2.87572704e-02 -4.56959270e-02  3.76282223e-02  5.67959994e-03
   4.82973382e-02  7.18674958e-02 -3.22867222e-02  4.23663342e-03
   7.14555457e-02 -4.87763025e-02  9.21672359e-02 -7.02596381e-02
  -5.96140958e-02 -6.98392317e-02 -5.26071712e-02  1.64333154e-02
   3.37219946e-02  7.99551327e-03  7.81822205e-03  4.00384739e-02
   3.21275815e-02 -6.66245669e-02 -6.87062889e-02  2.21954286e-02
   5.57688773e-02  3.56051773e-02  1.84528541e-03 -2.21427772e-02
   2.77429968e-02 -5.78566715e-02 -2.02040803e-02  3.49563137e-02
   6.79309517e-02 -5.25913835e-02 -1.46194957e-02  2.22054124e-03
  -4.48319949e-02 -6.33966103e-02 -4.04729135e-02  3.34772095e-02
  -1.27730221e-02 -6.79631755e-02  6.00433648e-02 -5.38142025e-03
  -5.66610321e-02  2.42340639e-02  3.21802199e-02 -1.91810429e-02]
 [ 1.42467534e-02  5.53986207e-02  4.16681692e-02  7.73558095e-02
   2.35859565e-02  1.72462463e-02 -1.14916533e-01 -2.32705306e-02
  -7.45804757e-02  2.54166569e-03  4.10643741e-02  4.18102778e-02
  -5.73373691e-04 -5.07932119e-02 -3.59384306e-02 -5.12979552e-02
   4.51801494e-02 -4.46447469e-02 -3.77943255e-02  1.64942015e-02
  -7.07984194e-02 -3.37614901e-02  4.46504354e-03 -4.73533012e-03
   3.47419754e-02  5.53693734e-02  2.89429128e-02  5.61105460e-02
  -1.52432239e-02 -1.98320951e-03 -2.16575693e-02  2.10992017e-04
  -2.91656740e-02 -7.90129006e-02  3.58506367e-02 -4.11277777e-03
   1.04752742e-01 -1.46047035e-02  1.15579978e-01 -2.79360581e-02
   5.71610965e-02  2.42919475e-02 -6.92085624e-02 -2.67360099e-02
   9.44149718e-02 -1.79499835e-02  1.88813135e-02 -2.74196863e-02
  -6.84197918e-02 -1.02689080e-01 -5.02103120e-02  5.27441017e-02
   3.43680829e-02 -1.23279532e-02  6.11134768e-02  5.04298359e-02
  -6.42505586e-02  4.02354263e-02 -3.23347375e-02  1.97141636e-02
   6.46964367e-03 -6.08897619e-02  6.86613917e-02  4.56908457e-02
   2.76800599e-02  2.69543529e-02 -2.92757060e-02 -6.76974952e-02
  -6.04904480e-02 -1.63450055e-02  6.26976788e-02  6.93902075e-02
   4.02659923e-02  7.43647143e-02  5.43106198e-02 -4.69128117e-02
   3.01742554e-02  6.83089951e-03  4.84299697e-02  3.31476703e-02
  -1.35584548e-02  1.00349151e-02 -5.41106015e-02  2.50220224e-02
   3.00353374e-02  2.44456679e-02  1.98040847e-02 -4.82848361e-02
  -6.88193664e-02  9.89755616e-03 -3.82537767e-02 -6.00842535e-02
  -2.31915321e-02  9.58198961e-03 -5.34744076e-02 -4.23301719e-02
   1.37905197e-04  8.40926766e-02  2.09837407e-02 -1.26695409e-02
  -3.22992504e-02  1.13003500e-01 -7.95752108e-02 -3.50672193e-03
  -4.58860397e-02  7.10556433e-02 -1.09830335e-01 -4.36694100e-02
   3.81883048e-02 -3.68289836e-02 -1.91179477e-02 -8.19098800e-02
   3.38731408e-02  1.76585522e-02 -2.12641675e-02 -8.17673653e-03
   3.20328958e-02 -5.43422252e-02 -2.67683640e-02  3.86286825e-02
   7.28615895e-02  5.91174606e-03 -2.63484772e-02 -3.48026156e-02
  -6.12881482e-02  4.82587516e-03 -6.22108169e-02 -1.07252123e-02]
 [ 2.58745831e-02  1.32676233e-02 -1.28196344e-01 -7.58332908e-02
  -3.72605659e-02 -4.58043115e-03 -3.28132287e-02  1.13985643e-01
   1.89733505e-02  1.24253519e-01  5.70622273e-02  1.22849464e-01
   1.40911892e-01 -1.52709112e-01  3.99531983e-02 -3.53140347e-02
   7.44959712e-02 -9.10084546e-02 -1.17741957e-01  4.21752334e-02
   5.64173982e-02  6.69089332e-02 -1.91627219e-01 -1.53578401e-01
   3.24381702e-02 -6.83646947e-02  5.37713803e-02  1.39703527e-02
   2.15824991e-02  1.22717023e-01  1.18833654e-01 -5.33266552e-02
  -8.48429725e-02 -1.95084848e-02  5.01545183e-02  4.99890670e-02
   1.43182606e-01  1.44218087e-01  1.75724477e-01 -3.99924964e-02
   1.14725873e-01 -1.31893083e-01  2.23103352e-02  1.40736148e-01
  -6.43435344e-02 -6.30252361e-02 -1.49216861e-01 -9.92229432e-02
  -6.30300343e-02 -5.47000095e-02 -1.05968185e-01  2.89501026e-02
  -4.17950563e-02 -9.43909958e-02 -1.28975958e-01 -7.10719004e-02
   1.10029586e-01  4.74743545e-02 -1.15401611e-01  1.40707307e-02
  -8.40322301e-02 -8.01848695e-02  4.52823751e-02  2.77652964e-02
  -7.55502051e-03  7.37479180e-02  1.14927258e-04 -9.16033015e-02
  -1.58631541e-02 -2.15426356e-01  1.11745581e-01 -2.16892771e-02
  -5.14449626e-02 -3.94680984e-02  5.09535149e-02 -1.44795567e-01
   2.11228691e-02  1.37559965e-01  1.38339326e-01  4.99511696e-02
  -6.50312193e-03 -9.96373966e-02 -2.66221911e-03 -2.80751884e-02
  -1.19402491e-01  1.87315941e-01 -4.70052063e-02 -1.14820361e-01
   5.06228134e-02  6.97819069e-02 -3.95704359e-02 -5.76128103e-02
  -4.91563492e-02 -1.87479611e-02 -1.11245725e-03 -9.99596566e-02
   3.50827388e-02  1.01152308e-01  7.83716068e-02 -6.40480220e-02
   1.23849362e-01  1.80936500e-01 -9.51355845e-02 -9.86887217e-02
  -2.42190212e-02 -3.71145494e-02 -1.63997605e-01  1.82813033e-02
  -1.04633957e-01 -1.82860106e-01 -1.00972438e-02 -5.26940078e-02
   1.40504658e-01  8.87558982e-02  1.44487023e-01  3.95336971e-02
  -5.77332750e-02  1.95821170e-02  5.28275743e-02 -2.35422701e-03
  -3.09535339e-02 -4.62108143e-02  8.27855170e-02  6.42201006e-02
   4.54188511e-02 -7.64190853e-02  1.78861432e-02  1.33788303e-01]
 [ 1.29587099e-01  3.97657156e-02 -3.63376662e-02 -7.93883726e-02
  -1.04624704e-02  9.02450308e-02 -8.38581398e-02  5.33169694e-02
   3.30033228e-02  1.81374520e-01 -1.65862311e-02  1.59988459e-02
   1.26143366e-01 -1.26243919e-01 -2.76843980e-02 -3.70506272e-02
   5.46176247e-02 -5.80663122e-02 -1.46801010e-01  9.36221853e-02
   1.25334218e-01  1.16611049e-01 -1.19050987e-01 -1.25982448e-01
   1.19925281e-02  2.54411008e-02 -2.69241538e-03  2.65751407e-02
   1.08733714e-01  8.62387046e-02  5.86650893e-02 -4.17046137e-02
  -6.89765215e-02  6.98861945e-03 -1.13646202e-02  1.23772338e-01
   1.39381513e-01  1.35186121e-01  7.72951767e-02  2.08931286e-02
   5.68399802e-02 -1.03242457e-01 -5.09467255e-03  1.04676858e-01
   3.81317921e-02 -4.20513265e-02 -8.41450989e-02 -2.45074965e-02
   5.78623787e-02 -1.02352589e-01 -1.13105834e-01  5.04838973e-02
  -1.10715181e-02 -2.02832520e-01 -1.52903467e-01  7.95462728e-02
   9.73814502e-02  3.96084674e-02 -1.26733541e-01 -3.04195490e-02
  -8.85355994e-02 -1.02283612e-01  1.85123697e-01  1.63764246e-02
   4.70343372e-03  1.27331167e-01 -1.02613188e-01 -1.18569791e-01
   8.50233734e-02 -1.80057198e-01  1.49135098e-01 -1.98728647e-02
  -1.42198056e-03 -4.00600024e-02 -5.59982434e-02 -1.48573533e-01
   1.48613572e-01  1.24252953e-01  6.41446337e-02  1.34176493e-01
  -9.91098359e-02 -1.05665579e-01  6.67256266e-02  7.17617646e-02
  -1.07394993e-01  1.53309464e-01 -3.16685662e-02 -5.25221676e-02
   1.16792955e-01  1.15533881e-01  6.57619238e-02 -1.39420200e-02
  -8.65461975e-02  9.46381129e-03  9.06101055e-03 -1.14075104e-02
   1.01767071e-01  1.23768531e-01 -5.64620458e-02 -3.93677428e-02
   1.87983662e-01  1.47640064e-01 -5.41609116e-02 -9.33175310e-02
  -8.61337110e-02 -2.90254503e-03 -5.06261326e-02  7.27076679e-02
  -1.10562183e-01 -1.20084740e-01  9.37909558e-02 -2.05138475e-01
   9.37571451e-02  1.34948939e-01  1.07199162e-01  1.36212725e-02
  -7.04715848e-02 -3.14203016e-02 -3.04563902e-02 -8.89592618e-03
   5.17971581e-03 -8.91023800e-02  2.88871266e-02 -3.16243991e-02
   9.32797864e-02 -7.90399238e-02  1.39911817e-02  1.47985324e-01]
 [ 1.03457645e-01 -3.93897444e-02 -4.14864942e-02  6.62469417e-02
   4.65403171e-03  1.41792133e-01 -9.66704041e-02  9.45526585e-02
  -1.04763182e-02  9.19545963e-02 -2.10801829e-02 -1.22444341e-02
   8.41460824e-02 -8.30036998e-02  9.00140181e-02  1.50956633e-02
   9.60720032e-02 -6.76749125e-02 -9.89432558e-02  1.34095356e-01
   9.51109007e-02  8.59765857e-02 -1.10928275e-01 -1.57200322e-02
  -1.25927990e-02  3.30603390e-04 -1.08401314e-03  2.80679073e-02
   1.74760856e-02  7.70794079e-02  1.54698446e-01 -6.98994249e-02
  -7.45365024e-02  2.92590968e-02  6.31638095e-02  1.49397939e-01
   8.59382078e-02  8.06570947e-02  1.62203133e-01 -5.24110459e-02
   5.77955395e-02 -1.14227019e-01 -3.79151069e-02  1.39854223e-01
   3.32081541e-02 -6.34851307e-03 -8.97269920e-02 -1.03603207e-01
  -6.67784736e-02 -7.19459951e-02 -2.10882034e-02 -6.03740029e-02
  -4.77930121e-02 -1.63709432e-01 -7.26408139e-02 -6.03413731e-02
   9.02366638e-03  8.02702978e-02 -1.60801455e-01 -1.04108900e-01
  -1.26480073e-01 -3.85389663e-02  1.91564707e-03  5.13795987e-02
  -3.93482931e-02  4.27246206e-02 -3.96250561e-02 -2.79206559e-02
   1.19023882e-01 -3.89744304e-02  1.12835556e-01  1.02518890e-02
  -2.51539052e-03  6.82008788e-02 -5.86483115e-03 -9.77116898e-02
   2.13121176e-02 -4.39374289e-03  2.20580511e-02  5.24256304e-02
  -4.76622097e-02 -1.11983381e-02  1.42339230e-01 -1.24822184e-02
  -1.66218579e-02  4.26166914e-02 -1.04620911e-01 -1.63660813e-02
   4.21458408e-02  8.77188370e-02 -7.21445605e-02 -1.02061547e-01
  -4.81990539e-02 -2.36102678e-02 -4.03189659e-02 -3.99750248e-02
   1.07440781e-02  8.04599151e-02  6.12184294e-02  5.79502210e-02
   1.64352357e-01  1.46617815e-01  5.19904681e-03 -2.80808061e-02
   6.14182130e-02  5.13346419e-02 -1.20198190e-01 -6.13583066e-03
  -4.94912937e-02 -3.12579423e-02  8.98018852e-02 -9.63224992e-02
  -3.24060656e-02  5.71467951e-02  2.95474231e-02  1.95405725e-02
   4.62734886e-02  2.96164453e-02 -2.63039358e-02  1.82291660e-02
   1.41818449e-01  5.42763248e-03  9.32707712e-02  2.43013855e-02
   5.56803271e-02  1.04700528e-01  2.34606732e-02  3.00791431e-02]
 [ 9.62582678e-02 -1.55295715e-01  3.50589640e-02  6.84698150e-02
   9.70328823e-02  1.03631258e-01 -6.09015003e-02 -2.89609525e-02
   7.74213448e-02  2.25765020e-01  8.61734301e-02  1.05168335e-02
  -3.54274991e-03 -7.23442137e-02  4.35601771e-02  8.02568346e-02
  -3.93080637e-02  1.43942218e-02 -5.54814264e-02  3.01024318e-02
   1.31081194e-01 -9.85307842e-02 -8.56348053e-02 -1.45160675e-01
   3.40699330e-02  4.91313823e-02 -7.79545680e-02 -7.85577297e-02
   5.73718473e-02  1.46418601e-01  8.32021981e-02  6.06993213e-02
  -9.64961648e-02 -9.39305425e-02  1.19026795e-01  7.45931044e-02
   8.97517577e-02  2.63531897e-02  4.22981270e-02 -2.84945033e-02
   1.63226500e-01 -1.89741969e-01 -4.80066836e-02  1.03201210e-01
   4.70240526e-02 -1.30497124e-02 -5.67359179e-02 -2.55296435e-02
   6.11684518e-04 -1.18898191e-01  5.61756045e-02 -1.86936617e-01
  -6.42865077e-02 -1.19223237e-01  7.52723292e-02 -7.63366967e-02
  -1.09934986e-01  7.38548413e-02 -1.52648658e-01 -1.03131540e-01
   1.66796986e-02 -6.45723799e-03  1.31195918e-01  1.17734812e-01
   1.69042535e-02  2.36292332e-02 -4.60333787e-02 -1.25149250e-01
   9.01151672e-02 -7.13233724e-02  3.27697173e-02 -2.22387128e-02
   2.83817705e-02 -8.66737515e-02  9.59618911e-02 -1.63144976e-01
  -1.68789942e-02  7.20373690e-02  1.47933140e-01  6.68868888e-03
  -2.91472953e-02  4.15958278e-03  1.63494453e-01  7.47767314e-02
  -5.00415340e-02  1.51527271e-01  2.59676632e-02  1.06137298e-01
   3.63417976e-02  9.90203172e-02  8.50542188e-02  2.88275033e-02
  -9.17135701e-02 -9.65208933e-02  8.36979300e-02 -9.98894125e-02
   9.05139372e-02  2.18265355e-02  1.14175091e-02 -3.32554011e-03
   9.22247246e-02  1.38631999e-01 -1.13198116e-01  5.06835505e-02
  -9.85096619e-02 -2.89549865e-02 -5.80258993e-03 -2.37501459e-03
   1.38555663e-02  6.13042861e-02  3.68676521e-02 -1.01131104e-01
   9.71593559e-02  9.00048837e-02  4.27223220e-02 -5.92196919e-02
  -5.64103806e-03 -6.47114962e-02  2.15588957e-02  3.17230076e-02
  -6.83763549e-02  6.90798685e-02  2.36745737e-02 -1.56340033e-01
   1.24959551e-01  5.60108721e-02  4.55765566e-03  6.10375628e-02]
 [-6.66582212e-02 -6.96059093e-02 -8.08157548e-02 -5.00432849e-02
   1.88783426e-02  6.24324046e-02 -4.35737930e-02  1.10359102e-01
   1.67885497e-02  2.45411590e-01  1.12632334e-01  2.43474811e-01
   1.75308362e-01 -5.99768609e-02  4.21772264e-02 -1.03956223e-01
   1.15838185e-01  3.08571216e-02  1.82801206e-02  8.51377379e-03
   5.74842282e-02 -1.43071964e-01 -3.78827713e-02 -1.62799537e-01
   1.12432092e-02  9.75300521e-02 -1.06486872e-01  2.26228535e-02
  -4.54851240e-02  1.25159606e-01  1.60107657e-01 -2.77392734e-02
  -4.33778055e-02 -1.16854481e-01 -2.43724622e-02 -2.89769378e-02
   1.08163103e-01 -5.30312508e-02  1.25665709e-01 -1.55564874e-01
   3.24825794e-01 -9.05680731e-02  1.34834265e-02  2.65276045e-01
   1.35228470e-01  6.01268038e-02 -8.61452669e-02  4.05756049e-02
  -8.94937664e-02 -9.11684409e-02 -3.79029065e-02 -7.12891743e-02
  -5.26977479e-02 -4.35167924e-02 -9.53283235e-02 -1.10453628e-01
  -1.38261124e-01  1.27383858e-01 -9.63835865e-02 -1.15065966e-02
  -1.92109458e-02 -7.50131579e-03  1.89482823e-01 -1.00604564e-01
  -1.06071323e-01 -1.55825661e-02  4.76462543e-02 -4.65677865e-02
   1.44054115e-01 -9.58015248e-02  1.86309353e-01 -1.01473078e-01
   1.37099884e-02 -9.17335972e-03  2.28193432e-01 -4.76739220e-02
  -7.02439016e-03  1.06817529e-01  1.83209658e-01 -1.11012608e-01
   4.24886309e-02 -6.14604428e-02  2.61195600e-01 -2.07722738e-01
  -5.40534370e-02  2.77194157e-02 -1.44501477e-01  6.04014695e-02
   1.52568668e-01  2.05303282e-01  5.79465777e-02  1.50659010e-02
  -1.33749336e-01  3.40005942e-02  1.59922570e-01 -1.30087331e-01
   3.65371779e-05  9.04982239e-02  1.22877676e-02  4.14905027e-02
   2.68458247e-01  1.30695820e-01 -1.42317504e-01  1.30734876e-01
  -4.44126427e-02 -5.27752675e-02 -1.33176640e-01 -2.91527137e-02
  -1.06191374e-01  1.19891100e-01  2.79892907e-02 -2.00330406e-01
   1.24570489e-01  1.60892278e-01  5.42154573e-02 -1.54114485e-01
   2.44570058e-02  1.40163023e-03  3.12779024e-02  9.74959210e-02
  -4.12260629e-02 -9.02956352e-02 -2.81813927e-03 -3.06280870e-02
   2.10172031e-02  4.92134802e-02  5.97874522e-02  1.40740693e-01]
 [-1.36856809e-01 -3.17580365e-02 -8.67749304e-02  4.41812538e-03
   3.43870334e-02 -4.39127274e-02 -1.10391602e-01 -1.70263629e-02
   3.19738351e-02  2.92725176e-01  1.42047882e-01  7.47073889e-02
   1.55625314e-01  4.51448746e-02 -8.39740213e-04  1.87883694e-02
   8.09612349e-02 -7.27807879e-02  1.08185234e-02 -7.15455338e-02
  -2.66696569e-02 -1.85625628e-01  3.03205382e-02 -1.13670632e-01
   8.07107687e-02  3.88649181e-02 -1.94349792e-02 -6.21338934e-02
  -1.49297863e-01  7.72262812e-02  6.86171353e-02  7.62122795e-02
  -1.15921721e-02 -3.52958590e-02 -8.45265090e-02 -1.32912800e-01
   5.92550077e-02 -4.13793810e-02  1.70311451e-01 -4.82040979e-02
   1.13072388e-01 -1.35679081e-01 -3.58491647e-03  2.99997449e-01
   5.71121871e-02 -6.20759651e-02 -1.32052720e-01 -9.09458771e-02
  -1.18083939e-01 -1.50006413e-01 -5.83934560e-02 -6.17995784e-02
   3.49052697e-02  2.98313275e-02 -1.50866255e-01 -1.34166582e-02
   1.88103151e-02  9.97188017e-02  1.33038983e-01 -2.88162176e-02
  -3.45552415e-02  3.76995862e-03  2.41722554e-01 -1.80497333e-01
  -1.09469049e-01  5.01985736e-02 -5.09888008e-02 -6.03300938e-03
   9.13903639e-02 -1.79288939e-01  1.41266584e-01 -1.63766332e-02
  -7.55279064e-02 -2.38506719e-02  1.88941091e-01 -1.23695835e-01
   1.35906398e-01  1.95623294e-01  1.68566883e-01 -9.67160054e-03
  -6.32625818e-02 -1.53869977e-02  7.00362995e-02 -5.91781326e-02
  -1.02168307e-01 -4.66828011e-02  1.74845811e-02 -4.50123101e-02
   9.33651328e-02  1.29938185e-01 -6.35791058e-03  6.06898889e-02
  -1.38795108e-01  1.29166797e-01  5.79142049e-02  1.51971299e-02
   9.54430327e-02  1.17239565e-01 -6.17037751e-02 -6.20977394e-02
   1.47434965e-01  7.02361315e-02 -8.65179226e-02  2.11291090e-01
   3.20606157e-02 -1.91587493e-01 -1.08922124e-01 -8.62712488e-02
  -9.66769382e-02  7.01822937e-02  6.31482229e-02 -1.42002225e-01
  -2.35363618e-02  3.68015021e-02  6.04954921e-02  1.82944555e-02
   9.05511677e-02  3.16310599e-02 -7.47839361e-03  8.86056796e-02
   8.26346502e-02 -5.75063303e-02  1.27388909e-01 -1.28899906e-02
   1.55721247e-01  7.08760843e-02  1.60339028e-01  1.13285527e-01]
 [-7.09921941e-02  1.27121443e-02  9.02423784e-02  2.41937228e-02
   2.08735168e-01  2.58719474e-01 -1.22656420e-01  1.26082361e-01
  -7.73336813e-02  3.46636713e-01  3.57556269e-02  6.12997636e-02
   1.16005838e-01  7.28994533e-02  1.70761496e-01 -3.29739116e-02
   1.73626125e-01 -7.09172934e-02 -4.20727171e-02  1.34121194e-01
   2.22989514e-01 -2.88462430e-01 -2.16753110e-02 -2.76818275e-01
   1.13136478e-01 -9.78400279e-03  3.41440253e-02 -2.81945821e-02
  -6.96005523e-02  2.80975610e-01  1.88884556e-01  1.23758256e-01
  -1.24924101e-01  1.17756589e-03 -1.42915651e-01 -1.78206265e-01
   2.32418850e-01  3.20600346e-02  2.43730083e-01 -2.83164561e-01
   1.25947386e-01 -1.88418120e-01  2.10100692e-02  3.26271623e-01
   3.25029641e-02 -9.74208638e-02 -2.40361407e-01  3.51498127e-02
  -6.13745395e-03 -2.77604789e-01 -2.58871615e-01 -1.06819510e-01
  -2.62357965e-02 -9.22126248e-02 -2.42027953e-01 -2.72151306e-02
   8.43013078e-02  7.35878125e-02 -4.22516987e-02 -3.17629278e-02
  -1.61444843e-02 -3.08034308e-02  1.29512414e-01  9.46668088e-02
  -1.58424437e-01  7.99655840e-02 -1.62787914e-01 -2.00555339e-01
   1.23457670e-01 -3.16086739e-01  1.65602624e-01  3.62303369e-02
  -8.61473009e-03  5.11275604e-02  1.68296844e-01 -2.09583938e-01
   1.66371584e-01  2.60527134e-01  2.21489653e-01  1.11209795e-01
   2.54597105e-02 -1.28047243e-01  2.97264814e-01  2.15092637e-02
  -2.25034624e-01  2.78882146e-01 -1.02784760e-01 -2.26913951e-02
   2.64069051e-01  1.35759890e-01  1.28616825e-01 -7.57093402e-03
  -1.90930426e-01  3.23811918e-02  8.00899491e-02 -8.59195217e-02
   2.49048412e-01  1.17267527e-01 -1.03945896e-01 -1.00875422e-02
   3.91791463e-01  1.49443313e-01 -2.91166365e-01  2.56243080e-01
  -1.20095918e-02 -9.84526724e-02 -3.05651903e-01 -5.32099009e-02
  -1.77318305e-01  1.68451164e-02  1.09894313e-01 -1.00522801e-01
  -1.74611676e-02  2.52517462e-01  1.95694357e-01  6.69171810e-02
   1.36541843e-01  3.13949585e-02  8.57937410e-02  1.26813442e-01
  -1.49163103e-03 -2.36228436e-01  1.32262647e-01 -1.15532853e-01
   1.92406505e-01 -7.79665262e-02  1.25202283e-01  2.40588933e-01]
 [-8.57018754e-02 -4.21613492e-02  1.01710332e-03  2.08279565e-02
   7.71234035e-02  7.88790956e-02 -6.62364140e-02 -1.37448832e-01
  -9.19525400e-02  1.88152298e-01 -2.91206855e-02  1.39904335e-01
  -2.47746538e-02 -1.79332178e-02 -3.83957326e-02 -7.85084367e-02
   1.79996163e-01 -1.66921273e-01 -8.17894787e-02  1.56117082e-01
   3.79154980e-01 -2.13467553e-01 -2.35730752e-01 -1.61695376e-01
   2.18990669e-01  4.46414948e-02 -2.81043202e-02  2.21374054e-02
  -2.59915814e-02  1.79344028e-01  9.74036157e-02  2.65062064e-01
  -8.35743025e-02  8.62483159e-02 -9.27743167e-02 -1.61951289e-01
   3.11476678e-01  7.83420447e-03  1.38913020e-01 -2.06706151e-01
   2.70007879e-01 -1.41691893e-01 -1.04941428e-01  2.30196908e-01
   5.36063500e-02 -4.82334606e-02 -1.57448009e-01 -1.81280494e-01
   1.04893360e-03 -2.18165785e-01 -2.34066829e-01  8.87497572e-06
  -8.55914354e-02 -1.69936597e-01 -2.83633083e-01  3.79120670e-02
   3.41225229e-02  2.27221012e-01  9.61203426e-02  4.67017852e-02
  -3.80000472e-02 -7.67188892e-03  7.64569417e-02  1.53865650e-01
  -1.51974514e-01  1.60470139e-03 -7.93742836e-02 -1.22843295e-01
   1.36984602e-01 -2.33902305e-01  1.86355457e-01 -6.85422495e-02
  -1.38344839e-01  8.31026211e-02  2.15023190e-01  1.22483589e-01
   1.14291258e-01  1.71888098e-01  2.18547404e-01  1.99029639e-01
   7.26605728e-02 -6.41915500e-02  3.47400814e-01 -5.45568131e-02
  -3.94435152e-02  1.41406626e-01 -3.52883488e-02 -4.64187227e-02
   1.36174709e-01  1.75508991e-01  4.26973924e-02  1.22179054e-01
  -2.16850609e-01 -9.51220542e-02  5.73336445e-02 -1.78784654e-01
   1.65027454e-01  3.40202041e-02 -1.48201331e-01  5.69390245e-02
   4.50013965e-01  2.45422661e-01 -3.35929960e-01  1.65071011e-01
  -1.20869897e-01  5.92682930e-03 -2.48623669e-01  1.11652955e-01
  -2.53316969e-01 -2.57863760e-01  4.91171144e-03 -9.26579684e-02
  -1.42872214e-01  2.80333608e-01  1.81271091e-01  4.25228104e-02
   2.04250202e-01  1.44690335e-01  3.93384211e-02  4.62463573e-02
   1.31806418e-01 -2.48124346e-01  7.05609247e-02 -2.06352293e-01
   1.38554737e-01  9.63625535e-02  9.31563526e-02  1.89145178e-01]
 [-6.36572540e-02  1.70304310e-02 -2.06934258e-01 -1.27509281e-01
   8.28846246e-02 -6.80603907e-02 -1.23609647e-01 -1.68591484e-01
   3.82582583e-02 -1.13264605e-01 -6.10297918e-02  3.88720453e-01
   2.17211060e-02  1.97643563e-01  6.00577630e-02  1.76067557e-02
   3.50129128e-01 -1.56412363e-01 -8.47749189e-02  1.45036981e-01
   2.73116548e-02 -2.76707321e-01 -9.18781310e-02  6.32435605e-02
  -9.87875089e-02  2.27351319e-02 -7.07014799e-02 -1.39352247e-01
  -9.93553996e-02 -3.09376806e-01  6.33341167e-03  1.87872592e-02
   3.80534166e-03 -1.91195115e-01  1.89227268e-01  2.31609046e-01
   1.33062854e-01 -7.18141496e-02 -3.20351601e-01  2.01637432e-01
   1.39569253e-01  2.45446768e-02  2.36758087e-02 -4.44681048e-02
   1.65529743e-01  2.12051924e-02  1.67551674e-02 -2.08431304e-01
  -7.51512796e-02 -8.20892006e-02 -1.84990987e-01 -1.02759190e-01
  -1.07928291e-01 -2.60458980e-02 -6.86360821e-02 -4.66057770e-02
  -6.68154880e-02  8.28668252e-02 -4.92932973e-03 -3.42568494e-02
  -1.11877359e-01 -3.79606262e-02  1.82570219e-01  7.67235737e-03
  -5.77315986e-02  5.86608611e-02  1.62807643e-01  8.07689950e-02
   1.98633969e-01  2.60044932e-01 -5.12434505e-02  2.28538290e-01
   1.21490296e-03  1.69047996e-01  2.10145935e-01  2.31246129e-01
   1.95597447e-02  8.76071230e-02  1.13965869e-01  1.38613194e-01
  -1.98139213e-02  2.57233739e-01  2.97287494e-01 -3.25966299e-01
  -3.52339894e-02 -6.56174943e-02  1.00533672e-01  1.10228062e-01
  -6.72123656e-02  1.65522397e-01  1.55838355e-01  1.23580068e-01
  -1.42226383e-01 -1.57526150e-01  2.43857324e-01 -1.92634806e-01
  -5.80727123e-02  9.15582776e-02  3.90756354e-02  2.56009430e-01
   4.94269505e-02 -2.13110328e-01  6.72860211e-03  2.23987088e-01
   2.94672519e-01  3.07959951e-02  6.79746270e-02  2.81700671e-01
  -1.45003542e-01 -1.00932725e-01 -1.63949668e-01 -2.55457219e-02
   1.14373483e-01 -1.76162437e-01 -2.45713890e-01 -5.51336817e-02
   2.75757492e-01  1.84684008e-01 -3.95326391e-02  2.74095088e-01
   8.96091834e-02 -2.26065174e-01  1.07583739e-01 -2.70370003e-02
  -3.54340263e-02 -2.54836287e-02 -1.66862324e-01  1.39483690e-01]
 [ 2.58707970e-01 -4.17983904e-03 -2.04427004e-01 -1.39344826e-01
   3.56439024e-01  2.71246612e-01 -1.42659292e-01 -5.74157052e-02
  -8.82607847e-02 -6.81735277e-02 -1.78708732e-01  9.26633552e-02
   2.15341762e-01 -1.33526713e-01  2.21497878e-01 -1.33304283e-01
   2.22138748e-01 -1.28670976e-01 -1.07443728e-01  2.26877213e-01
  -5.83727807e-02 -2.19944477e-01 -8.69066343e-02 -1.61955714e-01
  -1.61020264e-01 -1.17508650e-01  1.53962404e-01 -7.43400827e-02
  -2.29262169e-02 -3.63077782e-02  1.91087723e-01  8.88709724e-02
   1.40194418e-02 -8.96780789e-02  1.97120860e-01  1.58477813e-01
   3.31666432e-02  1.08604230e-01 -9.40769538e-03  1.30780324e-01
  -1.10235428e-02 -2.07884356e-01  7.75599554e-02  4.19813812e-01
   1.26423538e-01  1.67700097e-01 -2.62999609e-02 -1.84166163e-01
  -6.80399686e-02 -3.08315866e-02 -1.88181818e-01  5.36186919e-02
  -1.12215027e-01 -1.07221790e-01 -1.09063827e-01  1.76713765e-02
  -2.21290886e-02  6.68402314e-02 -1.56759322e-01  2.34061573e-02
  -7.70575777e-02  4.34034280e-02  3.43019776e-02 -8.36729407e-02
  -4.86050136e-02 -2.89193317e-02 -2.63019592e-01 -1.37607053e-01
   2.39269808e-01  1.18689612e-01 -8.88506249e-02  1.18513770e-01
   1.72545344e-01  9.03641135e-02  4.26776744e-02 -9.15503874e-02
   1.57650992e-01  1.35243446e-01  5.70140965e-02  1.32592902e-01
   6.12303056e-03  2.51445472e-01  3.90218973e-01 -1.33267850e-01
  -2.26878047e-01  8.08692072e-03  2.62933653e-02 -1.20533295e-02
   6.52287854e-03  7.23215789e-02  2.24865943e-01  8.39407444e-02
  -2.21520349e-01  1.09689444e-01 -1.04045346e-01 -2.36564968e-02
   4.04079258e-02  4.08098161e-01 -4.14910689e-02  2.63531864e-01
   2.52499521e-01 -9.27036107e-02 -6.66631013e-02 -5.74813634e-02
  -2.64209118e-02  1.23302817e-01 -2.42240086e-01  4.32066582e-02
  -1.36852190e-01 -2.15321779e-01 -4.45809104e-02 -3.15805167e-01
   4.39875722e-02  8.95417109e-02 -1.41043514e-01  8.23643282e-02
   3.22953075e-01 -2.42757335e-01  7.91394711e-02  2.28738219e-01
   8.81362855e-02 -1.73830435e-01  4.74732906e-01 -2.67914385e-02
  -8.52140188e-02 -5.80250695e-02 -6.02583960e-03  4.19461206e-02]
 [ 1.05649963e-01 -8.44072923e-02 -1.01118661e-01 -8.72590691e-02
   2.47981265e-01 -2.31892243e-02 -1.82253584e-01 -4.19378094e-02
  -3.43223251e-02  1.98909312e-01 -4.71294485e-02 -1.37759700e-01
   1.22215606e-01 -6.61030635e-02  4.63690430e-01 -2.16909513e-01
  -1.05410278e-01 -9.51878056e-02 -1.18149571e-01  9.26131979e-02
  -3.63331698e-02 -1.64176226e-01  1.02603003e-01 -7.35007524e-02
   2.65329272e-01 -6.67104274e-02  2.17905968e-01 -2.88981292e-02
  -1.42609254e-02  2.74853647e-01  1.38274163e-01 -2.52786595e-02
  -1.16171859e-01  2.85062462e-01 -3.53058018e-02  1.61019102e-01
  -9.15424749e-02  2.50563592e-01  3.66367519e-01 -2.09694088e-01
  -4.49742973e-02 -2.55094562e-02 -4.17356193e-02  4.37742770e-01
   9.09733921e-02  9.75630358e-02 -1.57425255e-01 -1.32571533e-01
   3.88468951e-02 -1.94332615e-01 -7.89785832e-02  1.22568280e-01
  -1.43261030e-01 -9.52135697e-02 -2.57783264e-01 -4.05081026e-02
   2.88188875e-01  3.91308703e-02  7.78754056e-02 -6.35828078e-03
  -8.43633488e-02  6.44282997e-02 -5.29918522e-02 -5.27760796e-02
   7.00986534e-02 -5.12538701e-02 -1.33539468e-01 -1.55520245e-01
   3.53760600e-01 -1.94626540e-01 -2.01921910e-02 -5.84897213e-02
  -3.32710221e-02  9.60217491e-02 -6.06228337e-02 -1.25395462e-01
   1.08474113e-01  1.32030562e-01  6.31952062e-02  2.27727160e-01
   6.70500696e-02  1.16438389e-01  3.55683893e-01  1.03413068e-01
   4.26464230e-02  1.03441782e-01  1.81871161e-01 -2.33540207e-01
   3.12075824e-01 -1.44614782e-02  2.18073472e-01  8.39957073e-02
  -1.41914412e-01  2.89968163e-01 -1.22548632e-01  1.06300041e-01
   1.60262793e-01  2.61143297e-01 -2.22820714e-01  9.61335823e-02
   3.08391780e-01  1.73871025e-01 -6.58929572e-02 -3.04757827e-03
  -4.37208042e-02 -4.22676355e-02 -8.27597082e-02 -8.69992450e-02
  -2.80897673e-02 -5.39270341e-01  2.73157299e-01 -1.24486864e-01
  -2.31617197e-01  2.73514777e-01  2.02245295e-01  4.04210873e-02
   3.17768574e-01 -1.93710670e-01 -1.06227696e-01 -3.87314567e-03
   1.71588019e-01  1.24714382e-01  3.20290327e-01 -6.46462888e-02
   1.77230313e-01 -5.68425879e-02  2.54578710e-01  8.49353969e-02]
 [-4.36345227e-02 -6.64462149e-02  5.82055002e-02  8.79014283e-03
   3.07341754e-01  1.25228569e-01 -1.61923036e-01  5.35422936e-02
  -4.60785478e-02  3.77267838e-01  8.56666490e-02 -1.90018475e-01
   1.73842177e-01  2.29375642e-02  2.71246284e-01 -2.37559050e-01
  -2.28200316e-01 -4.47366349e-02 -9.70625505e-02  2.15539709e-02
  -3.52754481e-02 -1.34032488e-01  3.54000568e-01 -4.98826355e-02
   2.87854910e-01  2.60732055e-01  2.24333197e-01 -1.11406697e-02
   3.30547206e-02  3.89427722e-01  1.07242011e-01 -4.54548411e-02
  -1.05361082e-01  2.94276953e-01 -1.41588092e-01 -2.97757015e-02
  -8.27879682e-02  9.64553729e-02  3.45309675e-01 -9.91676822e-02
   4.23989743e-02 -1.37734175e-01  5.06320186e-02  5.26074767e-01
  -7.22700506e-02  1.78175956e-01 -1.83218777e-01 -5.90115301e-02
  -5.11963293e-03 -3.75827819e-01 -1.12932645e-01 -6.24058284e-02
  -1.20501980e-01 -1.24860473e-01 -2.08150357e-01 -5.37362024e-02
   2.81777591e-01  6.78538233e-02  9.88859236e-02  2.43318975e-02
  -1.18059210e-01  3.90637219e-02 -1.40754834e-01 -1.25793546e-01
   2.05657445e-02  7.47661442e-02  6.82151318e-02 -1.27797514e-01
   4.10218805e-01 -1.76643118e-01  1.86708495e-01 -1.08672500e-01
  -3.65938582e-02 -1.10921245e-02 -7.23386882e-03 -9.10053551e-02
   1.54302105e-01  1.17923059e-01  5.35652302e-02  1.69577256e-01
  -4.18334231e-02  1.95610896e-02  3.31987858e-01  2.24485659e-04
   7.06015620e-04  1.13975219e-01  1.51518673e-01 -1.26305949e-02
   1.65927112e-01  3.19030182e-03  5.78050017e-02 -1.28551692e-01
  -1.03694685e-02  2.01798066e-01 -5.62845320e-02  5.75546399e-02
   2.75534123e-01  6.83418363e-02 -6.28756136e-02  2.10535191e-02
   3.94734025e-01  3.77990425e-01 -3.84561345e-02  1.37525275e-01
  -5.01329638e-03 -1.35324374e-01 -1.73996970e-01 -2.46254593e-01
  -1.50821567e-01 -4.03835744e-01  1.35205343e-01 -2.28235915e-01
  -1.26914069e-01  2.59553730e-01  4.14633363e-01  9.69590396e-02
   2.83324510e-01 -6.20776713e-02 -6.52067661e-02 -1.30772144e-01
   2.21093461e-01  8.04307982e-02  1.28973484e-01 -1.27431422e-01
   2.46551111e-01  3.43609527e-02  2.87624598e-01  2.36339673e-01]
 [-1.12800403e-02 -8.88662636e-02  7.20598772e-02  7.89726228e-02
   2.15609059e-01  2.65045166e-01 -1.12423182e-01 -1.59066431e-02
  -2.24485882e-02  3.79632533e-01  1.01048956e-02  1.34588331e-01
   3.40382785e-01 -6.03149682e-02  1.56351596e-01 -5.38255759e-02
  -1.44215614e-01  2.31249984e-02 -5.42823710e-02  1.79609179e-01
   6.14373870e-02 -2.47537211e-01 -1.17447563e-01 -1.85493022e-01
   7.46420473e-02  5.62237622e-03  9.13629755e-02  2.12821458e-02
   5.70180477e-04  2.50234663e-01  7.42669106e-02  7.19321594e-02
  -1.02715448e-01 -8.94375145e-03 -4.23807874e-02 -1.38965756e-01
   4.98954393e-02  4.06242535e-02  2.05597147e-01  9.55518782e-02
   1.51003316e-01 -1.78282633e-01  5.45066744e-02  4.53635484e-01
  -3.74195585e-03 -4.85504381e-02 -5.92933632e-02 -1.31352395e-01
   1.36451153e-02 -2.41123483e-01  6.05892353e-02 -2.84873962e-01
  -8.49253982e-02 -1.20441444e-01 -7.93770999e-02  3.75874303e-02
  -1.18191335e-02 -8.96373484e-03 -3.37943807e-02  6.80503175e-02
  -3.65149938e-02 -1.99842468e-01  9.47254896e-02  1.76592261e-01
  -2.43317917e-01  9.10955817e-02  1.70941185e-02 -1.83743507e-01
   3.14379960e-01 -2.14124650e-01  2.96928793e-01 -1.39445797e-01
   1.40749784e-02  4.19053808e-02  8.39303657e-02  3.66124883e-02
